<?xml version="1.0"?>
<opencv_storage>
<cascade>
  <stageType>BOOST</stageType>
  <featureType>HAAR</featureType>
  <height>20</height>
  <width>20</width>
  <stageParams>
    <boostType>GAB</boostType>
    <minHitRate>9.9500000476837158e-01</minHitRate>
    <maxFalseAlarm>5.0000000000000000e-01</maxFalseAlarm>
    <weightTrimRate>9.4999999999999996e-01</weightTrimRate>
    <maxDepth>1</maxDepth>
    <maxWeakCount>100</maxWeakCount></stageParams>
  <featureParams>
    <maxCatCount>0</maxCatCount>
    <featSize>1</featSize>
    <mode>BASIC</mode></featureParams>
  <stageNum>31</stageNum>
  <stages>
    <!-- stage 0 -->
    <_>
      <maxWeakCount>5</maxWeakCount>
      <stageThreshold>-2.7594032883644104e-01</stageThreshold>
      <weakClassifiers>
        <_>
          <internalNodes>
            0 -1 502 2.4101663380861282e-02</internalNodes>
          <leafValues>
            -1.9754977524280548e-01 8.3070302009582520e-01</leafValues></_>
        <_>
          <internalNodes>
            0 -1 289 -1.9202777743339539e-01</internalNodes>
          <leafValues>
            -9.1568040847778320e-01 3.7101918458938599e-01</leafValues></_>
        <_>
          <internalNodes>
            0 -1 187 5.0629418343305588e-02</internalNodes>
          <leafValues>
            -3.3115568757057190e-01 7.5057643651962280e-01</leafValues></_>
        <_>
          <internalNodes>
            0 -1 255 -2.6309922337532043e-02</internalNodes>
          <leafValues>
            8.3591723442077637e-01 -2.6310443878173828e-01</leafValues></_>
        <_>
          <internalNodes>
            0 -1 84 1.5485942363739014e-01</internalNodes>
          <leafValues>
            4.0329721570014954e-01 -7.1952843666076660e-01</leafValues></_></weakClassifiers></_>
    <!-- stage 1 -->
    <_>
      <maxWeakCount>9</maxWeakCount>
      <stageThreshold>-6.5467011928558350e-01</stageThreshold>
      <weakClassifiers>
        <_>
          <internalNodes>
            0 -1 25 4.2430156469345093e-01</internalNodes>
          <leafValues>
            4.6854305267333984e-01 -8.1690138578414917e-01</leafValues></_>
        <_>
          <internalNodes>
            0 -1 360 -1.0232129693031311e-01</internalNodes>
          <leafValues>
            8.4430998563766479e-01 -1.5999014675617218e-01</leafValues></_>
        <_>
          <internalNodes>
            0 -1 291 -4.9498945474624634e-02</internalNodes>
          <leafValues>
            8.1479245424270630e-01 -2.2531843185424805e-01</leafValues></_>
        <_>
          <internalNodes>
            0 -1 697 -1.7195774242281914e-02</internalNodes>
          <leafValues>
            7.5579613447189331e-01 -1.5160031616687775e-01</leafValues></_>
        <_>
          <internalNodes>
            0 -1 742 -1.0421732440590858e-02</internalNodes>
          <leafValues>
            7.9192197322845459e-01 -2.3991970717906952e-01</leafValues></_>
        <_>
          <internalNodes>
            0 -1 217 2.8021987527608871e-02</internalNodes>
          <leafValues>
            -2.5293344259262085e-01 6.3052809238433838e-01</leafValues></_>
        <_>
          <internalNodes>
            0 -1 116 4.6264819800853729e-02</internalNodes>
          <leafValues>
            2.7604192495346069e-01 -6.7641913890838623e-01</leafValues></_>
        <_>
          <internalNodes>
            0 -1 200 -5.3047850728034973e-02</internalNodes>
          <leafValues>
            7.5178104639053345e-01 -1.9118686020374298e-01</leafValues></_>
        <_>
          <internalNodes>
            0 -1 472 2.6258774101734161e-02</internalNodes>
          <leafValues>
            -1.7830617725849152e-01 6.7659950256347656e-01</leafValues></_></weakClassifiers></_>
    <!-- stage 2 -->
    <_>
      <maxWeakCount>9</maxWeakCount>
      <stageThreshold>-3.8661360740661621e-01</stageThreshold>
      <weakClassifiers>
        <_>
          <internalNodes>
            0 -1 22 -3.7475338578224182e-01</internalNodes>
          <leafValues>
            -9.4701987504959106e-01 4.9457880854606628e-01</leafValues></_>
        <_>
          <internalNodes>
            0 -1 670 -4.0322244167327881e-02</internalNodes>
          <leafValues>
            7.3588842153549194e-01 -2.4544022977352142e-01</leafValues></_>
        <_>
          <internalNodes>
            0 -1 567 6.2793180346488953e-02</internalNodes>
          <leafValues>
            -2.4025715887546539e-01 6.4257645606994629e-01</leafValues></_>
        <_>
          <internalNodes>
            0 -1 358 -3.2632179558277130e-02</internalNodes>
          <leafValues>
            7.3051643371582031e-01 -2.2063650190830231e-01</leafValues></_>
        <_>
          <internalNodes>
            0 -1 253 2.9778199270367622e-02</internalNodes>
          <leafValues>
            -1.8066932260990143e-01 7.2782981395721436e-01</leafValues></_>
        <_>
          <internalNodes>
            0 -1 247 -4.5341938734054565e-02</internalNodes>
          <leafValues>
            7.7519989013671875e-01 -1.5897814929485321e-01</leafValues></_>
        <_>
          <internalNodes>
            0 -1 215 2.8676826506853104e-02</internalNodes>
          <leafValues>
            -1.1630194634199142e-01 8.5565268993377686e-01</leafValues></_>
        <_>
          <internalNodes>
            0 -1 600 -1.5632808208465576e-01</internalNodes>
          <leafValues>
            -7.5790750980377197e-01 1.4958865940570831e-01</leafValues></_>
        <_>
          <internalNodes>
            0 -1 68 8.2628294825553894e-02</internalNodes>
          <leafValues>
            1.3150222599506378e-01 -7.3114144802093506e-01</leafValues></_></weakClassifiers></_>
    <!-- stage 3 -->
    <_>
      <maxWeakCount>19</maxWeakCount>
      <stageThreshold>-8.0424022674560547e-01</stageThreshold>
      <weakClassifiers>
        <_>
          <internalNodes>
            0 -1 573 4.3292537331581116e-02</internalNodes>
          <leafValues>
            1.5060241520404816e-01 8.4745764732360840e-01</leafValues></_>
        <_>
          <internalNodes>
            0 -1 215 2.5747265666723251e-02</internalNodes>
          <leafValues>
            -8.8147670030593872e-02 7.3757028579711914e-01</leafValues></_>
        <_>
          <internalNodes>
            0 -1 407 1.6141127794981003e-02</internalNodes>
          <leafValues>
            -1.6125135123729706e-01 6.0522091388702393e-01</leafValues></_>
        <_>
          <internalNodes>
            0 -1 325 3.3761531114578247e-02</internalNodes>
          <leafValues>
            -1.5003010630607605e-01 7.9059904813766479e-01</leafValues></_>
        <_>
          <internalNodes>
            0 -1 267 -1.3181453570723534e-02</internalNodes>
          <leafValues>
            5.7687866687774658e-01 -1.2680712342262268e-01</leafValues></_>
        <_>
          <internalNodes>
            0 -1 351 -8.6756885051727295e-02</internalNodes>
          <leafValues>
            7.5643318891525269e-01 -1.0117243975400925e-01</leafValues></_>
        <_>
          <internalNodes>
            0 -1 708 -1.2670395895838737e-02</internalNodes>
          <leafValues>
            6.8975156545639038e-01 -1.2049152702093124e-01</leafValues></_>
        <_>
          <internalNodes>
            0 -1 149 -2.9198437929153442e-02</internalNodes>
          <leafValues>
            -4.1363856196403503e-01 2.0501621067523956e-01</leafValues></_>
        <_>
          <internalNodes>
            0 -1 195 -9.6881267381832004e-04</internalNodes>
          <leafValues>
            2.7196940779685974e-01 -2.8938668966293335e-01</leafValues></_>
        <_>
          <internalNodes>
            0 -1 109 5.1604986190795898e-02</internalNodes>
          <leafValues>
            1.2290015816688538e-01 -6.8152469396591187e-01</leafValues></_>
        <_>
          <internalNodes>
            0 -1 284 8.3369147032499313e-03</internalNodes>
          <leafValues>
            -1.2709909677505493e-01 6.6829264163970947e-01</leafValues></_>
        <_>
          <internalNodes>
            0 -1 588 -1.3208659365773201e-02</internalNodes>
          <leafValues>
            6.3526463508605957e-01 -1.0480083525180817e-01</leafValues></_>
        <_>
          <internalNodes>
            0 -1 737 -1.7415480688214302e-02</internalNodes>
          <leafValues>
            6.9159823656082153e-01 -1.0325889289379120e-01</leafValues></_>
        <_>
          <internalNodes>
            0 -1 498 -6.6333323717117310e-02</internalNodes>
          <leafValues>
            6.9685709476470947e-01 -9.2583760619163513e-02</leafValues></_>
        <_>
          <internalNodes>
            0 -1 76 3.0094033107161522e-02</internalNodes>
          <leafValues>
            -8.9069001376628876e-02 7.4729901552200317e-01</leafValues></_>
        <_>
          <internalNodes>
            0 -1 547 4.2287418618798256e-03</internalNodes>
          <leafValues>
            -2.1228790283203125e-01 3.5160660743713379e-01</leafValues></_>
        <_>
          <internalNodes>
            0 -1 721 -1.2557615339756012e-01</internalNodes>
          <leafValues>
            -9.4954383373260498e-01 8.9500486850738525e-02</leafValues></_>
        <_>
          <internalNodes>
            0 -1 350 1.2049745023250580e-01</internalNodes>
          <leafValues>
            1.3647404313087463e-01 -5.3601980209350586e-01</leafValues></_>
        <_>
          <internalNodes>
            0 -1 483 5.0951585173606873e-02</internalNodes>
          <leafValues>
            -1.8011990189552307e-01 4.1134908795356750e-01</leafValues></_></weakClassifiers></_>
    <!-- stage 4 -->
    <_>
      <maxWeakCount>16</maxWeakCount>
      <stageThreshold>-7.1669095754623413e-01</stageThreshold>
      <weakClassifiers>
        <_>
          <internalNodes>
            0 -1 382 -2.2306572645902634e-02</internalNodes>
          <leafValues>
            7.9582369327545166e-01 1.1643090099096298e-01</leafValues></_>
        <_>
          <internalNodes>
            0 -1 475 -1.6532402485609055e-02</internalNodes>
          <leafValues>
            3.8823366165161133e-01 -2.8346461057662964e-01</leafValues></_>
        <_>
          <internalNodes>
            0 -1 470 -4.5249201357364655e-02</internalNodes>
          <leafValues>
            8.8205230236053467e-01 -1.0499101877212524e-01</leafValues></_>
        <_>
          <internalNodes>
            0 -1 308 -5.8613546192646027e-02</internalNodes>
          <leafValues>
            6.7115211486816406e-01 -2.0017001032829285e-01</leafValues></_>
        <_>
          <internalNodes>
            0 -1 486 -2.7767132967710495e-02</internalNodes>
          <leafValues>
            6.9326823949813843e-01 -1.1683674156665802e-01</leafValues></_>
        <_>
          <internalNodes>
            0 -1 183 1.0563245043158531e-02</internalNodes>
          <leafValues>
            -1.7993019521236420e-01 5.3432375192642212e-01</leafValues></_>
        <_>
          <internalNodes>
            0 -1 496 4.2594261467456818e-02</internalNodes>
          <leafValues>
            -2.3913083970546722e-01 3.4715616703033447e-01</leafValues></_>
        <_>
          <internalNodes>
            0 -1 256 7.4559271335601807e-02</internalNodes>
          <leafValues>
            -8.9232839643955231e-02 8.7718528509140015e-01</leafValues></_>
        <_>
          <internalNodes>
            0 -1 39 1.7980480194091797e-01</internalNodes>
          <leafValues>
            1.3527545332908630e-01 -8.1477749347686768e-01</leafValues></_>
        <_>
          <internalNodes>
            0 -1 42 -2.9007270932197571e-01</internalNodes>
          <leafValues>
            -8.3912026882171631e-01 8.5379593074321747e-02</leafValues></_>
        <_>
          <internalNodes>
            0 -1 386 2.7924276888370514e-02</internalNodes>
          <leafValues>
            -1.1477138102054596e-01 7.3548400402069092e-01</leafValues></_>
        <_>
          <internalNodes>
            0 -1 112 4.5215539634227753e-02</internalNodes>
          <leafValues>
            -9.0683825314044952e-02 7.7872526645660400e-01</leafValues></_>
        <_>
          <internalNodes>
            0 -1 59 1.0095066390931606e-03</internalNodes>
          <leafValues>
            2.8613439202308655e-01 -3.0598622560501099e-01</leafValues></_>
        <_>
          <internalNodes>
            0 -1 23 -1.3264057040214539e-01</internalNodes>
          <leafValues>
            -6.0359162092208862e-01 1.2098772823810577e-01</leafValues></_>
        <_>
          <internalNodes>
            0 -1 140 2.5996547937393188e-01</internalNodes>
          <leafValues>
            1.9580247998237610e-01 -4.2897567152976990e-01</leafValues></_>
        <_>
          <internalNodes>
            0 -1 652 1.4322474598884583e-02</internalNodes>
          <leafValues>
            -2.3399026691913605e-01 3.8728809356689453e-01</leafValues></_></weakClassifiers></_>
    <!-- stage 5 -->
    <_>
      <maxWeakCount>21</maxWeakCount>
      <stageThreshold>-6.0672879219055176e-01</stageThreshold>
      <weakClassifiers>
        <_>
          <internalNodes>
            0 -1 81 1.3535428047180176e-01</internalNodes>
          <leafValues>
            4.3946930766105652e-01 -5.5555558204650879e-01</leafValues></_>
        <_>
          <internalNodes>
            0 -1 352 -9.0992964804172516e-02</internalNodes>
          <leafValues>
            7.5922852754592896e-01 -1.3312380015850067e-01</leafValues></_>
        <_>
          <internalNodes>
            0 -1 675 -4.5107491314411163e-02</internalNodes>
          <leafValues>
            5.8265966176986694e-01 -1.2980563938617706e-01</leafValues></_>
        <_>
          <internalNodes>
            0 -1 714 -1.9889254122972488e-02</internalNodes>
          <leafValues>
            6.4146924018859863e-01 -1.4019346237182617e-01</leafValues></_>
        <_>
          <internalNodes>
            0 -1 80 -2.0559862256050110e-02</internalNodes>
          <leafValues>
            -7.9417300224304199e-01 1.0457348823547363e-01</leafValues></_>
        <_>
          <internalNodes>
            0 -1 159 8.1973113119602203e-03</internalNodes>
          <leafValues>
            -1.0431219637393951e-01 8.1841498613357544e-01</leafValues></_>
        <_>
          <internalNodes>
            0 -1 693 5.7740639895200729e-02</internalNodes>
          <leafValues>
            -1.0728015005588531e-01 7.1662902832031250e-01</leafValues></_>
        <_>
          <internalNodes>
            0 -1 691 -7.0791341364383698e-02</internalNodes>
          <leafValues>
            5.6751757860183716e-01 -1.0792685300111771e-01</leafValues></_>
        <_>
          <internalNodes>
            0 -1 633 1.2231897562742233e-02</internalNodes>
          <leafValues>
            -1.9005896151065826e-01 4.0071249008178711e-01</leafValues></_>
        <_>
          <internalNodes>
            0 -1 192 -8.9754372835159302e-02</internalNodes>
          <leafValues>
            -5.6433832645416260e-01 1.5071921050548553e-01</leafValues></_>
        <_>
          <internalNodes>
            0 -1 332 2.4355918169021606e-02</internalNodes>
          <leafValues>
            -1.0424111038446426e-01 7.5556886196136475e-01</leafValues></_>
        <_>
          <internalNodes>
            0 -1 331 -8.3048399537801743e-03</internalNodes>
          <leafValues>
            5.6212735176086426e-01 -1.3441422581672668e-01</leafValues></_>
        <_>
          <internalNodes>
            0 -1 32 -3.7931097904220223e-04</internalNodes>
          <leafValues>
            -3.5084116458892822e-01 2.2113063931465149e-01</leafValues></_>
        <_>
          <internalNodes>
            0 -1 56 -2.1500487625598907e-01</internalNodes>
          <leafValues>
            -7.9798942804336548e-01 9.6459135413169861e-02</leafValues></_>
        <_>
          <internalNodes>
            0 -1 220 3.8094431161880493e-02</internalNodes>
          <leafValues>
            1.1412226408720016e-01 -5.0797396898269653e-01</leafValues></_>
        <_>
          <internalNodes>
            0 -1 272 -8.1720560789108276e-02</internalNodes>
          <leafValues>
            -4.6841344237327576e-01 1.5879392623901367e-01</leafValues></_>
        <_>
          <internalNodes>
            0 -1 3 1.6096148639917374e-02</internalNodes>
          <leafValues>
            1.3904914259910583e-01 -5.1230704784393311e-01</leafValues></_>
        <_>
          <internalNodes>
            0 -1 122 2.1896161139011383e-02</internalNodes>
          <leafValues>
            -9.3778468668460846e-02 8.4218597412109375e-01</leafValues></_>
        <_>
          <internalNodes>
            0 -1 620 9.0305656194686890e-03</internalNodes>
          <leafValues>
            -7.5752161443233490e-02 6.7353361845016479e-01</leafValues></_>
        <_>
          <internalNodes>
            0 -1 92 5.9577487409114838e-02</internalNodes>
          <leafValues>
            1.0246487706899643e-01 -8.5271704196929932e-01</leafValues></_>
        <_>
          <internalNodes>
            0 -1 423 1.0339181870222092e-02</internalNodes>
          <leafValues>
            -1.6006387770175934e-01 5.0363916158676147e-01</leafValues></_></weakClassifiers></_>
    <!-- stage 6 -->
    <_>
      <maxWeakCount>21</maxWeakCount>
      <stageThreshold>-7.7396577596664429e-01</stageThreshold>
      <weakClassifiers>
        <_>
          <internalNodes>
            0 -1 405 -1.4003236591815948e-01</internalNodes>
          <leafValues>
            -6.1403506994247437e-01 4.2071196436882019e-01</leafValues></_>
        <_>
          <internalNodes>
            0 -1 669 -3.3689796924591064e-02</internalNodes>
          <leafValues>
            6.0952150821685791e-01 -1.6032370924949646e-01</leafValues></_>
        <_>
          <internalNodes>
            0 -1 172 4.6401228755712509e-02</internalNodes>
          <leafValues>
            -1.4109340310096741e-01 7.9834544658660889e-01</leafValues></_>
        <_>
          <internalNodes>
            0 -1 504 1.3818601146340370e-02</internalNodes>
          <leafValues>
            -3.6185947060585022e-01 2.8628462553024292e-01</leafValues></_>
        <_>
          <internalNodes>
            0 -1 374 1.8013449385762215e-02</internalNodes>
          <leafValues>
            -1.4996838569641113e-01 5.8786427974700928e-01</leafValues></_>
        <_>
          <internalNodes>
            0 -1 359 -5.8299280703067780e-02</internalNodes>
          <leafValues>
            6.4838278293609619e-01 -1.1579279601573944e-01</leafValues></_>
        <_>
          <internalNodes>
            0 -1 533 8.7876953184604645e-03</internalNodes>
          <leafValues>
            -2.1825093030929565e-01 3.9779528975486755e-01</leafValues></_>
        <_>
          <internalNodes>
            0 -1 577 5.8527860790491104e-02</internalNodes>
          <leafValues>
            -1.2386152148246765e-01 6.4062267541885376e-01</leafValues></_>
        <_>
          <internalNodes>
            0 -1 642 -7.5948019511997700e-03</internalNodes>
          <leafValues>
            5.2857708930969238e-01 -1.4883080124855042e-01</leafValues></_>
        <_>
          <internalNodes>
            0 -1 246 -5.6400418281555176e-02</internalNodes>
          <leafValues>
            5.3260374069213867e-01 -1.3351318240165710e-01</leafValues></_>
        <_>
          <internalNodes>
            0 -1 243 1.8537284806370735e-02</internalNodes>
          <leafValues>
            -2.0407971739768982e-01 3.5472890734672546e-01</leafValues></_>
        <_>
          <internalNodes>
            0 -1 404 -3.0096281319856644e-02</internalNodes>
          <leafValues>
            5.7432955503463745e-01 -1.1169390380382538e-01</leafValues></_>
        <_>
          <internalNodes>
            0 -1 191 7.8634433448314667e-03</internalNodes>
          <leafValues>
            -1.0612881183624268e-01 6.2320357561111450e-01</leafValues></_>
        <_>
          <internalNodes>
            0 -1 236 -1.1666102707386017e-01</internalNodes>
          <leafValues>
            4.7828111052513123e-01 -1.6115012764930725e-01</leafValues></_>
        <_>
          <internalNodes>
            0 -1 519 2.1412018686532974e-03</internalNodes>
          <leafValues>
            1.1911506205797195e-01 -6.6047704219818115e-01</leafValues></_>
        <_>
          <internalNodes>
            0 -1 520 -4.0726931765675545e-03</internalNodes>
          <leafValues>
            -5.7036650180816650e-01 1.0817164182662964e-01</leafValues></_>
        <_>
          <internalNodes>
            0 -1 490 1.1723606288433075e-01</internalNodes>
          <leafValues>
            9.7838900983333588e-02 -6.4440792798995972e-01</leafValues></_>
        <_>
          <internalNodes>
            0 -1 406 -8.5060745477676392e-02</internalNodes>
          <leafValues>
            -4.2362639307975769e-01 1.4871177077293396e-01</leafValues></_>
        <_>
          <internalNodes>
            0 -1 513 -1.5866778790950775e-02</internalNodes>
          <leafValues>
            5.5523014068603516e-01 -1.2656405568122864e-01</leafValues></_>
        <_>
          <internalNodes>
            0 -1 31 -1.6652477905154228e-02</internalNodes>
          <leafValues>
            -3.5958984494209290e-01 1.9493228197097778e-01</leafValues></_>
        <_>
          <internalNodes>
            0 -1 347 -2.6312619447708130e-02</internalNodes>
          <leafValues>
            4.3139243125915527e-01 -1.8672272562980652e-01</leafValues></_></weakClassifiers></_>
    <!-- stage 7 -->
    <_>
      <maxWeakCount>18</maxWeakCount>
      <stageThreshold>-8.5895377397537231e-01</stageThreshold>
      <weakClassifiers>
        <_>
          <internalNodes>
            0 -1 340 1.1584527790546417e-01</internalNodes>
          <leafValues>
            4.3922203779220581e-01 -7.9310345649719238e-01</leafValues></_>
        <_>
          <internalNodes>
            0 -1 584 1.8082708120346069e-02</internalNodes>
          <leafValues>
            -1.0488805174827576e-01 8.2484006881713867e-01</leafValues></_>
        <_>
          <internalNodes>
            0 -1 452 -1.0325631499290466e-01</internalNodes>
          <leafValues>
            6.1560636758804321e-01 -1.8298016488552094e-01</leafValues></_>
        <_>
          <internalNodes>
            0 -1 474 -1.8933603540062904e-02</internalNodes>
          <leafValues>
            3.0901828408241272e-01 -2.8245121240615845e-01</leafValues></_>
        <_>
          <internalNodes>
            0 -1 172 2.7878608554601669e-02</internalNodes>
          <leafValues>
            -1.6645899415016174e-01 5.9962046146392822e-01</leafValues></_>
        <_>
          <internalNodes>
            0 -1 530 2.8493324294686317e-02</internalNodes>
          <leafValues>
            -2.4783125519752502e-01 3.5054999589920044e-01</leafValues></_>
        <_>
          <internalNodes>
            0 -1 299 -1.6199355944991112e-02</internalNodes>
          <leafValues>
            6.3347250223159790e-01 -1.3741619884967804e-01</leafValues></_>
        <_>
          <internalNodes>
            0 -1 622 -1.6957420855760574e-02</internalNodes>
          <leafValues>
            7.6584690809249878e-01 -8.9778110384941101e-02</leafValues></_>
        <_>
          <internalNodes>
            0 -1 449 1.9160345196723938e-01</internalNodes>
          <leafValues>
            1.1622042208909988e-01 -7.8643476963043213e-01</leafValues></_>
        <_>
          <internalNodes>
            0 -1 597 -8.2354550249874592e-04</internalNodes>
          <leafValues>
            -5.8949691057205200e-01 1.4036023616790771e-01</leafValues></_>
        <_>
          <internalNodes>
            0 -1 33 -1.8262348021380603e-04</internalNodes>
          <leafValues>
            2.5488552451133728e-01 -2.9133731126785278e-01</leafValues></_>
        <_>
          <internalNodes>
            0 -1 676 4.6476922929286957e-02</internalNodes>
          <leafValues>
            -9.3089953064918518e-02 7.7589935064315796e-01</leafValues></_>
        <_>
          <internalNodes>
            0 -1 494 2.4268284440040588e-02</internalNodes>
          <leafValues>
            -2.7529007196426392e-01 2.6722756028175354e-01</leafValues></_>
        <_>
          <internalNodes>
            0 -1 403 -1.6221374273300171e-01</internalNodes>
          <leafValues>
            8.0956935882568359e-01 -1.0927415639162064e-01</leafValues></_>
        <_>
          <internalNodes>
            0 -1 448 2.0154472440481186e-02</internalNodes>
          <leafValues>
            -2.2533665597438812e-01 3.9756524562835693e-01</leafValues></_>
        <_>
          <internalNodes>
            0 -1 665 -7.0403167046606541e-04</internalNodes>
          <leafValues>
            -5.1734650135040283e-01 1.6973052918910980e-01</leafValues></_>
        <_>
          <internalNodes>
            0 -1 572 3.7081800401210785e-02</internalNodes>
          <leafValues>
            -1.1938625574111938e-01 7.8970956802368164e-01</leafValues></_>
        <_>
          <internalNodes>
            0 -1 553 -2.9419735074043274e-03</internalNodes>
          <leafValues>
            -5.5613213777542114e-01 1.4720951020717621e-01</leafValues></_></weakClassifiers></_>
    <!-- stage 8 -->
    <_>
      <maxWeakCount>19</maxWeakCount>
      <stageThreshold>-7.1282142400741577e-01</stageThreshold>
      <weakClassifiers>
        <_>
          <internalNodes>
            0 -1 505 2.0153366029262543e-02</internalNodes>
          <leafValues>
            -6.0041408985853195e-02 5.5247980356216431e-01</leafValues></_>
        <_>
          <internalNodes>
            0 -1 9 2.7291548252105713e-01</internalNodes>
          <leafValues>
            -9.4205513596534729e-02 7.7066552639007568e-01</leafValues></_>
        <_>
          <internalNodes>
            0 -1 165 -1.8527232110500336e-02</internalNodes>
          <leafValues>
            -8.4688293933868408e-01 8.7843127548694611e-02</leafValues></_>
        <_>
          <internalNodes>
            0 -1 467 -1.0257884860038757e-01</internalNodes>
          <leafValues>
            8.4511518478393555e-01 -8.8064052164554596e-02</leafValues></_>
        <_>
          <internalNodes>
            0 -1 188 6.9487087428569794e-02</internalNodes>
          <leafValues>
            -1.9149284064769745e-01 4.0143275260925293e-01</leafValues></_>
        <_>
          <internalNodes>
            0 -1 574 -8.4222115576267242e-02</internalNodes>
          <leafValues>
            6.7105013132095337e-01 -6.0468316078186035e-02</leafValues></_>
        <_>
          <internalNodes>
            0 -1 440 -1.6212470829486847e-02</internalNodes>
          <leafValues>
            2.3061496019363403e-01 -2.9150399565696716e-01</leafValues></_>
        <_>
          <internalNodes>
            0 -1 422 7.7597171068191528e-02</internalNodes>
          <leafValues>
            1.2689356505870819e-01 -5.0864863395690918e-01</leafValues></_>
        <_>
          <internalNodes>
            0 -1 0 -1.6218421515077353e-03</internalNodes>
          <leafValues>
            -6.0790681838989258e-01 1.0726106166839600e-01</leafValues></_>
        <_>
          <internalNodes>
            0 -1 98 1.9708788022398949e-02</internalNodes>
          <leafValues>
            -1.1441236734390259e-01 6.5558195114135742e-01</leafValues></_>
        <_>
          <internalNodes>
            0 -1 611 5.4576858878135681e-02</internalNodes>
          <leafValues>
            -1.4700327813625336e-01 4.9028313159942627e-01</leafValues></_>
        <_>
          <internalNodes>
            0 -1 726 1.0250560939311981e-02</internalNodes>
          <leafValues>
            -1.3234254717826843e-01 5.8020186424255371e-01</leafValues></_>
        <_>
          <internalNodes>
            0 -1 175 1.4799337834119797e-02</internalNodes>
          <leafValues>
            -9.9012523889541626e-02 6.2291300296783447e-01</leafValues></_>
        <_>
          <internalNodes>
            0 -1 663 -1.2115943431854248e-01</internalNodes>
          <leafValues>
            -6.6670149564743042e-01 1.1842964589595795e-01</leafValues></_>
        <_>
          <internalNodes>
            0 -1 151 -1.4806979894638062e-01</internalNodes>
          <leafValues>
            8.1876999139785767e-01 -8.9541919529438019e-02</leafValues></_>
        <_>
          <internalNodes>
            0 -1 108 -1.8094466999173164e-02</internalNodes>
          <leafValues>
            -7.3856830596923828e-01 1.0738666355609894e-01</leafValues></_>
        <_>
          <internalNodes>
            0 -1 186 6.9919668138027191e-02</internalNodes>
          <leafValues>
            -1.0407092422246933e-01 7.2713243961334229e-01</leafValues></_>
        <_>
          <internalNodes>
            0 -1 132 -1.2210598215460777e-03</internalNodes>
          <leafValues>
            -6.2739342451095581e-01 1.2524503469467163e-01</leafValues></_>
        <_>
          <internalNodes>
            0 -1 522 1.4083262532949448e-02</internalNodes>
          <leafValues>
            8.6279183626174927e-02 -6.5769118070602417e-01</leafValues></_></weakClassifiers></_>
    <!-- stage 9 -->
    <_>
      <maxWeakCount>23</maxWeakCount>
      <stageThreshold>-6.4869737625122070e-01</stageThreshold>
      <weakClassifiers>
        <_>
          <internalNodes>
            0 -1 144 -8.5347797721624374e-03</internalNodes>
          <leafValues>
            -4.1509434580802917e-02 5.7560974359512329e-01</leafValues></_>
        <_>
          <internalNodes>
            0 -1 15 -7.7769890427589417e-02</internalNodes>
          <leafValues>
            6.2464910745620728e-01 -8.1072621047496796e-02</leafValues></_>
        <_>
          <internalNodes>
            0 -1 524 -1.4123857952654362e-02</internalNodes>
          <leafValues>
            3.8871097564697266e-01 -2.2036285698413849e-01</leafValues></_>
        <_>
          <internalNodes>
            0 -1 535 -1.6859354451298714e-02</internalNodes>
          <leafValues>
            5.7395595312118530e-01 -6.4160458743572235e-02</leafValues></_>
        <_>
          <internalNodes>
            0 -1 392 -3.3480196725577116e-03</internalNodes>
          <leafValues>
            5.2474355697631836e-01 -1.3634234666824341e-01</leafValues></_>
        <_>
          <internalNodes>
            0 -1 591 4.5990422368049622e-03</internalNodes>
          <leafValues>
            -7.7312469482421875e-02 7.3634999990463257e-01</leafValues></_>
        <_>
          <internalNodes>
            0 -1 213 -2.1440833806991577e-02</internalNodes>
          <leafValues>
            4.9718335270881653e-01 -1.0712952166795731e-01</leafValues></_>
        <_>
          <internalNodes>
            0 -1 66 -3.0097062699496746e-03</internalNodes>
          <leafValues>
            -2.9973474144935608e-01 2.3740148544311523e-01</leafValues></_>
        <_>
          <internalNodes>
            0 -1 36 1.3344025611877441e-01</internalNodes>
          <leafValues>
            -6.6447965800762177e-02 9.2134118080139160e-01</leafValues></_>
        <_>
          <internalNodes>
            0 -1 602 3.3915513195097446e-03</internalNodes>
          <leafValues>
            -6.1859980225563049e-02 6.2377685308456421e-01</leafValues></_>
        <_>
          <internalNodes>
            0 -1 681 -2.4661235511302948e-04</internalNodes>
          <leafValues>
            1.4284895360469818e-01 -4.0237987041473389e-01</leafValues></_>
        <_>
          <internalNodes>
            0 -1 473 -2.5136056356132030e-03</internalNodes>
          <leafValues>
            6.2646043300628662e-01 -7.7907212078571320e-02</leafValues></_>
        <_>
          <internalNodes>
            0 -1 21 -2.0775710046291351e-01</internalNodes>
          <leafValues>
            -5.7936102151870728e-01 1.0240321606397629e-01</leafValues></_>
        <_>
          <internalNodes>
            0 -1 585 -6.5009319223463535e-03</internalNodes>
          <leafValues>
            7.8352856636047363e-01 -7.8182697296142578e-02</leafValues></_>
        <_>
          <internalNodes>
            0 -1 713 1.3640964403748512e-02</internalNodes>
          <leafValues>
            -7.9854637384414673e-02 6.8197733163833618e-01</leafValues></_>
        <_>
          <internalNodes>
            0 -1 756 -1.0790375992655754e-02</internalNodes>
          <leafValues>
            4.2345574498176575e-01 -1.6506852209568024e-01</leafValues></_>
        <_>
          <internalNodes>
            0 -1 104 4.5799568295478821e-02</internalNodes>
          <leafValues>
            1.1875421553850174e-01 -5.3045868873596191e-01</leafValues></_>
        <_>
          <internalNodes>
            0 -1 204 2.5056774029508233e-04</internalNodes>
          <leafValues>
            2.0404362678527832e-01 -3.1750845909118652e-01</leafValues></_>
        <_>
          <internalNodes>
            0 -1 288 -1.5138646960258484e-01</internalNodes>
          <leafValues>
            -5.2794808149337769e-01 1.1334532499313354e-01</leafValues></_>
        <_>
          <internalNodes>
            0 -1 287 5.6902334094047546e-02</internalNodes>
          <leafValues>
            -1.4418208599090576e-01 4.0815144777297974e-01</leafValues></_>
        <_>
          <internalNodes>
            0 -1 419 -6.9001398514956236e-04</internalNodes>
          <leafValues>
            3.3419033885002136e-01 -1.9063323736190796e-01</leafValues></_>
        <_>
          <internalNodes>
            0 -1 554 -1.8971781246364117e-03</internalNodes>
          <leafValues>
            -2.9810714721679688e-01 1.9877931475639343e-01</leafValues></_>
        <_>
          <internalNodes>
            0 -1 279 5.3029758855700493e-03</internalNodes>
          <leafValues>
            -1.0482852160930634e-01 6.7707425355911255e-01</leafValues></_></weakClassifiers></_>
    <!-- stage 10 -->
    <_>
      <maxWeakCount>25</maxWeakCount>
      <stageThreshold>-8.2426393032073975e-01</stageThreshold>
      <weakClassifiers>
        <_>
          <internalNodes>
            0 -1 293 -8.1954583525657654e-02</internalNodes>
          <leafValues>
            -1.8248175084590912e-01 4.6468400955200195e-01</leafValues></_>
        <_>
          <internalNodes>
            0 -1 707 -1.3223603367805481e-02</internalNodes>
          <leafValues>
            6.1887317895889282e-01 -1.2099052220582962e-01</leafValues></_>
        <_>
          <internalNodes>
            0 -1 379 -8.1607850734144449e-04</internalNodes>
          <leafValues>
            4.3993908166885376e-01 -1.6801311075687408e-01</leafValues></_>
        <_>
          <internalNodes>
            0 -1 324 3.5764411091804504e-02</internalNodes>
          <leafValues>
            -1.1773493885993958e-01 7.6259785890579224e-01</leafValues></_>
        <_>
          <internalNodes>
            0 -1 517 -5.3996732458472252e-03</internalNodes>
          <leafValues>
            2.0546443760395050e-01 -3.5364168882369995e-01</leafValues></_>
        <_>
          <internalNodes>
            0 -1 370 -6.0267108492553234e-03</internalNodes>
          <leafValues>
            4.6223798394203186e-01 -1.6515903174877167e-01</leafValues></_>
        <_>
          <internalNodes>
            0 -1 44 4.1597075760364532e-02</internalNodes>
          <leafValues>
            1.8721890449523926e-01 -4.2380732297897339e-01</leafValues></_>
        <_>
          <internalNodes>
            0 -1 637 1.0300345718860626e-02</internalNodes>
          <leafValues>
            -1.2666670978069305e-01 6.7400920391082764e-01</leafValues></_>
        <_>
          <internalNodes>
            0 -1 680 -2.2805032785981894e-03</internalNodes>
          <leafValues>
            6.4918208122253418e-01 -8.9368954300880432e-02</leafValues></_>
        <_>
          <internalNodes>
            0 -1 666 -1.7101534176617861e-03</internalNodes>
          <leafValues>
            7.6070302724838257e-01 -8.4478579461574554e-02</leafValues></_>
        <_>
          <internalNodes>
            0 -1 142 -2.9823279380798340e-01</internalNodes>
          <leafValues>
            -5.1612281799316406e-01 1.2423177808523178e-01</leafValues></_>
        <_>
          <internalNodes>
            0 -1 393 -9.5539225731045008e-04</internalNodes>
          <leafValues>
            8.1859290599822998e-01 -8.4359861910343170e-02</leafValues></_>
        <_>
          <internalNodes>
            0 -1 150 -4.6077654697000980e-03</internalNodes>
          <leafValues>
            -4.7015309333801270e-01 1.3880991935729980e-01</leafValues></_>
        <_>
          <internalNodes>
            0 -1 492 -1.1306047439575195e-02</internalNodes>
          <leafValues>
            6.4459633827209473e-01 -9.7162008285522461e-02</leafValues></_>
        <_>
          <internalNodes>
            0 -1 182 -3.5605019330978394e-01</internalNodes>
          <leafValues>
            -8.4210789203643799e-01 8.0873936414718628e-02</leafValues></_>
        <_>
          <internalNodes>
            0 -1 51 1.4486278407275677e-02</internalNodes>
          <leafValues>
            9.5887906849384308e-02 -5.5473166704177856e-01</leafValues></_>
        <_>
          <internalNodes>
            0 -1 342 5.0261902809143066e-01</internalNodes>
          <leafValues>
            5.6461032480001450e-02 -9.8102843761444092e-01</leafValues></_>
        <_>
          <internalNodes>
            0 -1 444 1.0837011970579624e-02</internalNodes>
          <leafValues>
            -1.8270531296730042e-01 4.4032451510429382e-01</leafValues></_>
        <_>
          <internalNodes>
            0 -1 420 -4.4001741334795952e-03</internalNodes>
          <leafValues>
            3.9331144094467163e-01 -1.6610632836818695e-01</leafValues></_>
        <_>
          <internalNodes>
            0 -1 237 5.0343363545835018e-04</internalNodes>
          <leafValues>
            -1.1849839985370636e-01 4.9773266911506653e-01</leafValues></_>
        <_>
          <internalNodes>
            0 -1 662 1.5093799680471420e-02</internalNodes>
          <leafValues>
            1.1908087879419327e-01 -5.9839743375778198e-01</leafValues></_>
        <_>
          <internalNodes>
            0 -1 157 -7.7650368213653564e-02</internalNodes>
          <leafValues>
            -8.9177864789962769e-01 5.7516556233167648e-02</leafValues></_>
        <_>
          <internalNodes>
            0 -1 264 -5.4056989029049873e-03</internalNodes>
          <leafValues>
            6.9289344549179077e-01 -1.0470647364854813e-01</leafValues></_>
        <_>
          <internalNodes>
            0 -1 751 3.2851105788722634e-04</internalNodes>
          <leafValues>
            -1.3711230456829071e-01 4.0946221351623535e-01</leafValues></_>
        <_>
          <internalNodes>
            0 -1 88 4.5460200309753418e-01</internalNodes>
          <leafValues>
            5.8809049427509308e-02 -1.</leafValues></_></weakClassifiers></_>
    <!-- stage 11 -->
    <_>
      <maxWeakCount>32</maxWeakCount>
      <stageThreshold>-6.4423191547393799e-01</stageThreshold>
      <weakClassifiers>
        <_>
          <internalNodes>
            0 -1 345 -6.2157273292541504e-02</internalNodes>
          <leafValues>
            7.8274762630462646e-01 1.9768562912940979e-01</leafValues></_>
        <_>
          <internalNodes>
            0 -1 249 1.6159336268901825e-01</internalNodes>
          <leafValues>
            -5.1871497184038162e-02 7.5808548927307129e-01</leafValues></_>
        <_>
          <internalNodes>
            0 -1 286 -1.2423051893711090e-01</internalNodes>
          <leafValues>
            4.8032051324844360e-01 -1.5375684201717377e-01</leafValues></_>
        <_>
          <internalNodes>
            0 -1 495 1.8787678331136703e-02</internalNodes>
          <leafValues>
            -2.1835218369960785e-01 3.4978500008583069e-01</leafValues></_>
        <_>
          <internalNodes>
            0 -1 58 6.2066060490906239e-04</internalNodes>
          <leafValues>
            2.0746935904026031e-01 -2.6307865977287292e-01</leafValues></_>
        <_>
          <internalNodes>
            0 -1 79 -1.7131160199642181e-01</internalNodes>
          <leafValues>
            6.4855480194091797e-01 -8.7135531008243561e-02</leafValues></_>
        <_>
          <internalNodes>
            0 -1 508 -4.1456438601016998e-02</internalNodes>
          <leafValues>
            7.4302083253860474e-01 -5.8875761926174164e-02</leafValues></_>
        <_>
          <internalNodes>
            0 -1 646 -1.0894434154033661e-01</internalNodes>
          <leafValues>
            8.6672395467758179e-01 -5.3527250885963440e-02</leafValues></_>
        <_>
          <internalNodes>
            0 -1 557 4.4243592768907547e-02</internalNodes>
          <leafValues>
            -1.8165832757949829e-01 2.6709643006324768e-01</leafValues></_>
        <_>
          <internalNodes>
            0 -1 636 6.4903087913990021e-03</internalNodes>
          <leafValues>
            9.5933973789215088e-02 -6.1626094579696655e-01</leafValues></_>
        <_>
          <internalNodes>
            0 -1 775 6.8903219653293490e-04</internalNodes>
          <leafValues>
            -1.7757084965705872e-01 2.8004971146583557e-01</leafValues></_>
        <_>
          <internalNodes>
            0 -1 612 -8.7780915200710297e-03</internalNodes>
          <leafValues>
            8.2668596506118774e-01 -6.4396768808364868e-02</leafValues></_>
        <_>
          <internalNodes>
            0 -1 658 -1.2369428295642138e-03</internalNodes>
          <leafValues>
            -5.5598050355911255e-01 9.7560741007328033e-02</leafValues></_>
        <_>
          <internalNodes>
            0 -1 278 -3.2526236027479172e-03</internalNodes>
          <leafValues>
            -3.7932044267654419e-01 1.2840120494365692e-01</leafValues></_>
        <_>
          <internalNodes>
            0 -1 741 1.2529553845524788e-02</internalNodes>
          <leafValues>
            -1.1465084552764893e-01 4.6573546528816223e-01</leafValues></_>
        <_>
          <internalNodes>
            0 -1 16 -8.5954971611499786e-02</internalNodes>
          <leafValues>
            -9.8411118984222412e-01 6.4729154109954834e-02</leafValues></_>
        <_>
          <internalNodes>
            0 -1 625 2.7360087260603905e-03</internalNodes>
          <leafValues>
            1.0330907255411148e-01 -4.1433203220367432e-01</leafValues></_>
        <_>
          <internalNodes>
            0 -1 489 -2.6251409202814102e-02</internalNodes>
          <leafValues>
            5.8851677179336548e-01 -8.8246695697307587e-02</leafValues></_>
        <_>
          <internalNodes>
            0 -1 674 4.9686379730701447e-02</internalNodes>
          <leafValues>
            -6.1036691069602966e-02 6.9707888364791870e-01</leafValues></_>
        <_>
          <internalNodes>
            0 -1 643 -4.6520046889781952e-03</internalNodes>
          <leafValues>
            -5.7665508985519409e-01 9.8618797957897186e-02</leafValues></_>
        <_>
          <internalNodes>
            0 -1 61 -7.6256304979324341e-02</internalNodes>
          <leafValues>
            -5.3365528583526611e-01 8.7499298155307770e-02</leafValues></_>
        <_>
          <internalNodes>
            0 -1 558 1.4725112915039062e-01</internalNodes>
          <leafValues>
            1.8132834136486053e-01 -3.3646643161773682e-01</leafValues></_>
        <_>
          <internalNodes>
            0 -1 529 9.6726780757308006e-03</internalNodes>
          <leafValues>
            -1.8136093020439148e-01 2.8485652804374695e-01</leafValues></_>
        <_>
          <internalNodes>
            0 -1 456 -6.4988434314727783e-02</internalNodes>
          <leafValues>
            4.1259732842445374e-01 -1.5604552626609802e-01</leafValues></_>
        <_>
          <internalNodes>
            0 -1 373 1.4654556289315224e-02</internalNodes>
          <leafValues>
            -9.3117348849773407e-02 5.6243652105331421e-01</leafValues></_>
        <_>
          <internalNodes>
            0 -1 320 -4.7570586204528809e-02</internalNodes>
          <leafValues>
            6.7418658733367920e-01 -7.6328627765178680e-02</leafValues></_>
        <_>
          <internalNodes>
            0 -1 343 -1.6194301843643188e-01</internalNodes>
          <leafValues>
            -8.1452113389968872e-01 6.5761797130107880e-02</leafValues></_>
        <_>
          <internalNodes>
            0 -1 463 7.7597228810191154e-03</internalNodes>
          <leafValues>
            -1.8473021686077118e-01 2.8445973992347717e-01</leafValues></_>
        <_>
          <internalNodes>
            0 -1 647 2.6822302490472794e-02</internalNodes>
          <leafValues>
            -7.4724614620208740e-02 7.2335463762283325e-01</leafValues></_>
        <_>
          <internalNodes>
            0 -1 592 2.8651691973209381e-03</internalNodes>
          <leafValues>
            7.8446030616760254e-02 -7.2781431674957275e-01</leafValues></_>
        <_>
          <internalNodes>
            0 -1 198 3.7998054176568985e-04</internalNodes>
          <leafValues>
            1.7718243598937988e-01 -2.6715570688247681e-01</leafValues></_>
        <_>
          <internalNodes>
            0 -1 94 6.8209448363631964e-04</internalNodes>
          <leafValues>
            1.6127376258373260e-01 -3.2495954632759094e-01</leafValues></_></weakClassifiers></_>
    <!-- stage 12 -->
    <_>
      <maxWeakCount>27</maxWeakCount>
      <stageThreshold>-6.2575125694274902e-01</stageThreshold>
      <weakClassifiers>
        <_>
          <internalNodes>
            0 -1 367 7.8206613659858704e-02</internalNodes>
          <leafValues>
            4.0379405021667480e-01 -2.4352331459522247e-01</leafValues></_>
        <_>
          <internalNodes>
            0 -1 319 7.7552244067192078e-02</internalNodes>
          <leafValues>
            -6.9811962544918060e-02 7.3929816484451294e-01</leafValues></_>
        <_>
          <internalNodes>
            0 -1 40 -9.2260316014289856e-03</internalNodes>
          <leafValues>
            5.0414329767227173e-01 -1.5795071423053741e-01</leafValues></_>
        <_>
          <internalNodes>
            0 -1 97 9.6090346574783325e-02</internalNodes>
          <leafValues>
            -5.6104436516761780e-02 8.0299723148345947e-01</leafValues></_>
        <_>
          <internalNodes>
            0 -1 316 -7.1225303690880537e-04</internalNodes>
          <leafValues>
            3.0977702140808105e-01 -1.8802492320537567e-01</leafValues></_>
        <_>
          <internalNodes>
            0 -1 563 8.7209674529731274e-04</internalNodes>
          <leafValues>
            -1.0614994168281555e-01 4.7838431596755981e-01</leafValues></_>
        <_>
          <internalNodes>
            0 -1 152 2.1826669573783875e-02</internalNodes>
          <leafValues>
            -2.3347251117229462e-01 2.0927326381206512e-01</leafValues></_>
        <_>
          <internalNodes>
            0 -1 262 1.3244752772152424e-03</internalNodes>
          <leafValues>
            -1.4353245496749878e-01 4.3344688415527344e-01</leafValues></_>
        <_>
          <internalNodes>
            0 -1 115 7.7125370502471924e-02</internalNodes>
          <leafValues>
            8.2704804837703705e-02 -8.1017065048217773e-01</leafValues></_>
        <_>
          <internalNodes>
            0 -1 122 1.9733997061848640e-02</internalNodes>
          <leafValues>
            -9.4201378524303436e-02 6.3733482360839844e-01</leafValues></_>
        <_>
          <internalNodes>
            0 -1 677 -9.4352262094616890e-03</internalNodes>
          <leafValues>
            5.8067637681961060e-01 -7.8634195029735565e-02</leafValues></_>
        <_>
          <internalNodes>
            0 -1 222 2.1077379584312439e-01</internalNodes>
          <leafValues>
            8.4252223372459412e-02 -8.0185383558273315e-01</leafValues></_>
        <_>
          <internalNodes>
            0 -1 274 -2.6050780434161425e-04</internalNodes>
          <leafValues>
            -2.9317626357078552e-01 1.7641705274581909e-01</leafValues></_>
        <_>
          <internalNodes>
            0 -1 735 1.2293960899114609e-03</internalNodes>
          <leafValues>
            -7.1146458387374878e-02 6.6352695226669312e-01</leafValues></_>
        <_>
          <internalNodes>
            0 -1 583 5.5369399487972260e-03</internalNodes>
          <leafValues>
            1.3511748611927032e-01 -3.7491679191589355e-01</leafValues></_>
        <_>
          <internalNodes>
            0 -1 34 1.4173703268170357e-02</internalNodes>
          <leafValues>
            9.3614354729652405e-02 -4.9592605233192444e-01</leafValues></_>
        <_>
          <internalNodes>
            0 -1 130 9.4080362468957901e-03</internalNodes>
          <leafValues>
            1.6371248662471771e-01 -2.9886758327484131e-01</leafValues></_>
        <_>
          <internalNodes>
            0 -1 442 1.9467415288090706e-02</internalNodes>
          <leafValues>
            -6.2025792896747589e-02 7.3339974880218506e-01</leafValues></_>
        <_>
          <internalNodes>
            0 -1 450 6.6556558012962341e-02</internalNodes>
          <leafValues>
            -1.6845704615116119e-01 2.6936802268028259e-01</leafValues></_>
        <_>
          <internalNodes>
            0 -1 615 6.7946892231702805e-03</internalNodes>
          <leafValues>
            -5.5966474115848541e-02 8.3361184597015381e-01</leafValues></_>
        <_>
          <internalNodes>
            0 -1 724 2.8482903726398945e-03</internalNodes>
          <leafValues>
            -9.2955969274044037e-02 4.2493996024131775e-01</leafValues></_>
        <_>
          <internalNodes>
            0 -1 749 -2.2018835879862309e-03</internalNodes>
          <leafValues>
            4.8697540163993835e-01 -9.7992822527885437e-02</leafValues></_>
        <_>
          <internalNodes>
            0 -1 632 1.5517983119934797e-03</internalNodes>
          <leafValues>
            1.0340645909309387e-01 -4.7792285680770874e-01</leafValues></_>
        <_>
          <internalNodes>
            0 -1 556 2.8699287213385105e-03</internalNodes>
          <leafValues>
            -1.1566682904958725e-01 4.2819210886955261e-01</leafValues></_>
        <_>
          <internalNodes>
            0 -1 93 5.4168105125427246e-02</internalNodes>
          <leafValues>
            8.2060649991035461e-02 -6.1931121349334717e-01</leafValues></_>
        <_>
          <internalNodes>
            0 -1 323 7.3380609974265099e-03</internalNodes>
          <leafValues>
            -6.6669479012489319e-02 6.4646738767623901e-01</leafValues></_>
        <_>
          <internalNodes>
            0 -1 77 -7.9548414796590805e-03</internalNodes>
          <leafValues>
            -3.8428372144699097e-01 1.4071565866470337e-01</leafValues></_></weakClassifiers></_>
    <!-- stage 13 -->
    <_>
      <maxWeakCount>26</maxWeakCount>
      <stageThreshold>-6.6641420125961304e-01</stageThreshold>
      <weakClassifiers>
        <_>
          <internalNodes>
            0 -1 87 2.9365482926368713e-01</internalNodes>
          <leafValues>
            3.6451613903045654e-01 -8.6666667461395264e-01</leafValues></_>
        <_>
          <internalNodes>
            0 -1 509 -5.7388052344322205e-02</internalNodes>
          <leafValues>
            -5.6583839654922485e-01 1.7399527132511139e-01</leafValues></_>
        <_>
          <internalNodes>
            0 -1 134 -4.0934919379651546e-03</internalNodes>
          <leafValues>
            -3.0338460206985474e-01 2.3746287822723389e-01</leafValues></_>
        <_>
          <internalNodes>
            0 -1 618 5.7311281561851501e-03</internalNodes>
          <leafValues>
            -1.2739127874374390e-01 6.5192925930023193e-01</leafValues></_>
        <_>
          <internalNodes>
            0 -1 55 -4.8414513468742371e-02</internalNodes>
          <leafValues>
            -5.8315259218215942e-01 1.0330793261528015e-01</leafValues></_>
        <_>
          <internalNodes>
            0 -1 434 1.8693269230425358e-03</internalNodes>
          <leafValues>
            -2.0613747835159302e-01 2.9089289903640747e-01</leafValues></_>
        <_>
          <internalNodes>
            0 -1 626 -9.8103899508714676e-03</internalNodes>
          <leafValues>
            7.2143054008483887e-01 -6.7937403917312622e-02</leafValues></_>
        <_>
          <internalNodes>
            0 -1 409 7.0240184664726257e-02</internalNodes>
          <leafValues>
            -1.5553422272205353e-01 3.5216563940048218e-01</leafValues></_>
        <_>
          <internalNodes>
            0 -1 596 -1.1717915767803788e-03</internalNodes>
          <leafValues>
            3.0949717760086060e-01 -1.8225847184658051e-01</leafValues></_>
        <_>
          <internalNodes>
            0 -1 487 6.3889916054904461e-03</internalNodes>
          <leafValues>
            -1.2355083972215652e-01 4.6838560700416565e-01</leafValues></_>
        <_>
          <internalNodes>
            0 -1 605 1.2219063937664032e-02</internalNodes>
          <leafValues>
            -8.6331374943256378e-02 6.3050144910812378e-01</leafValues></_>
        <_>
          <internalNodes>
            0 -1 257 8.8551659137010574e-03</internalNodes>
          <leafValues>
            -1.0257845371961594e-01 4.7067457437515259e-01</leafValues></_>
        <_>
          <internalNodes>
            0 -1 199 -4.1116261854767799e-03</internalNodes>
          <leafValues>
            -3.6738491058349609e-01 1.7450068891048431e-01</leafValues></_>
        <_>
          <internalNodes>
            0 -1 644 -2.2743581794202328e-03</internalNodes>
          <leafValues>
            -4.1967496275901794e-01 1.4141377806663513e-01</leafValues></_>
        <_>
          <internalNodes>
            0 -1 224 -3.4356152173131704e-04</internalNodes>
          <leafValues>
            3.0809292197227478e-01 -2.0403331518173218e-01</leafValues></_>
        <_>
          <internalNodes>
            0 -1 416 1.7302909493446350e-01</internalNodes>
          <leafValues>
            9.2955030500888824e-02 -6.1378896236419678e-01</leafValues></_>
        <_>
          <internalNodes>
            0 -1 769 7.6674870797432959e-05</internalNodes>
          <leafValues>
            2.0888070762157440e-01 -2.9080337285995483e-01</leafValues></_>
        <_>
          <internalNodes>
            0 -1 734 -5.0666742026805878e-02</internalNodes>
          <leafValues>
            -4.1284880042076111e-01 1.5781548619270325e-01</leafValues></_>
        <_>
          <internalNodes>
            0 -1 4 -1.5689677093178034e-04</internalNodes>
          <leafValues>
            -2.6017132401466370e-01 2.1066765487194061e-01</leafValues></_>
        <_>
          <internalNodes>
            0 -1 750 -2.4076469344436191e-05</internalNodes>
          <leafValues>
            2.3857165873050690e-01 -2.5417992472648621e-01</leafValues></_>
        <_>
          <internalNodes>
            0 -1 728 -2.5636167265474796e-03</internalNodes>
          <leafValues>
            5.1812398433685303e-01 -9.5244221389293671e-02</leafValues></_>
        <_>
          <internalNodes>
            0 -1 550 9.7327597904950380e-04</internalNodes>
          <leafValues>
            -1.9329361617565155e-01 3.0203878879547119e-01</leafValues></_>
        <_>
          <internalNodes>
            0 -1 238 3.4466430544853210e-02</internalNodes>
          <leafValues>
            -1.0237758606672287e-01 5.1783621311187744e-01</leafValues></_>
        <_>
          <internalNodes>
            0 -1 306 -6.0959076508879662e-03</internalNodes>
          <leafValues>
            4.1992771625518799e-01 -1.1360648274421692e-01</leafValues></_>
        <_>
          <internalNodes>
            0 -1 141 5.1387911662459373e-04</internalNodes>
          <leafValues>
            2.0402514934539795e-01 -2.6435410976409912e-01</leafValues></_>
        <_>
          <internalNodes>
            0 -1 302 -3.4064049832522869e-03</internalNodes>
          <leafValues>
            -2.4062253534793854e-01 2.1315057575702667e-01</leafValues></_></weakClassifiers></_>
    <!-- stage 14 -->
    <_>
      <maxWeakCount>25</maxWeakCount>
      <stageThreshold>-6.7692524194717407e-01</stageThreshold>
      <weakClassifiers>
        <_>
          <internalNodes>
            0 -1 376 -5.6597765535116196e-02</internalNodes>
          <leafValues>
            6.9680851697921753e-01 1.4935064315795898e-01</leafValues></_>
        <_>
          <internalNodes>
            0 -1 673 -3.9926085621118546e-02</internalNodes>
          <leafValues>
            4.4906777143478394e-01 -1.2830792367458344e-01</leafValues></_>
        <_>
          <internalNodes>
            0 -1 207 -5.9277214109897614e-02</internalNodes>
          <leafValues>
            6.8201887607574463e-01 -1.3499774038791656e-01</leafValues></_>
        <_>
          <internalNodes>
            0 -1 309 -1.2296861410140991e-01</internalNodes>
          <leafValues>
            7.1485519409179688e-01 -3.4851115196943283e-02</leafValues></_>
        <_>
          <internalNodes>
            0 -1 163 -2.2912973165512085e-01</internalNodes>
          <leafValues>
            -8.0349665880203247e-01 6.1325132846832275e-02</leafValues></_>
        <_>
          <internalNodes>
            0 -1 123 -2.7586452197283506e-03</internalNodes>
          <leafValues>
            -6.1819869279861450e-01 1.0895960032939911e-01</leafValues></_>
        <_>
          <internalNodes>
            0 -1 719 -1.1732550337910652e-02</internalNodes>
          <leafValues>
            5.4664802551269531e-01 -1.3901792466640472e-01</leafValues></_>
        <_>
          <internalNodes>
            0 -1 761 1.3978004455566406e-02</internalNodes>
          <leafValues>
            -1.0099532455205917e-01 6.1175119876861572e-01</leafValues></_>
        <_>
          <internalNodes>
            0 -1 41 -1.4122360944747925e-01</internalNodes>
          <leafValues>
            -6.6322171688079834e-01 1.0432228446006775e-01</leafValues></_>
        <_>
          <internalNodes>
            0 -1 739 -1.2380462139844894e-03</internalNodes>
          <leafValues>
            2.3572368919849396e-01 -2.4851380288600922e-01</leafValues></_>
        <_>
          <internalNodes>
            0 -1 485 2.0857873558998108e-01</internalNodes>
          <leafValues>
            1.0257393121719360e-01 -6.2401527166366577e-01</leafValues></_>
        <_>
          <internalNodes>
            0 -1 635 1.2834598310291767e-03</internalNodes>
          <leafValues>
            1.2594497203826904e-01 -4.3641465902328491e-01</leafValues></_>
        <_>
          <internalNodes>
            0 -1 630 -8.0481432378292084e-03</internalNodes>
          <leafValues>
            -8.4533113241195679e-01 1.0212498158216476e-01</leafValues></_>
        <_>
          <internalNodes>
            0 -1 499 9.9341049790382385e-02</internalNodes>
          <leafValues>
            7.6467439532279968e-02 -5.9056222438812256e-01</leafValues></_>
        <_>
          <internalNodes>
            0 -1 579 -6.9447159767150879e-02</internalNodes>
          <leafValues>
            5.9173226356506348e-01 -1.0631565749645233e-01</leafValues></_>
        <_>
          <internalNodes>
            0 -1 395 -1.3445976376533508e-01</internalNodes>
          <leafValues>
            -5.2645307779312134e-01 1.2710683047771454e-01</leafValues></_>
        <_>
          <internalNodes>
            0 -1 730 2.6602176949381828e-03</internalNodes>
          <leafValues>
            9.1188751161098480e-02 -5.7355958223342896e-01</leafValues></_>
        <_>
          <internalNodes>
            0 -1 72 -2.9446450062096119e-03</internalNodes>
          <leafValues>
            -7.0793479681015015e-01 7.0561498403549194e-02</leafValues></_>
        <_>
          <internalNodes>
            0 -1 617 2.8038960881531239e-03</internalNodes>
          <leafValues>
            1.2946119904518127e-01 -4.3730148673057556e-01</leafValues></_>
        <_>
          <internalNodes>
            0 -1 695 -3.8656972348690033e-02</internalNodes>
          <leafValues>
            4.3069317936897278e-01 -1.1658741533756256e-01</leafValues></_>
        <_>
          <internalNodes>
            0 -1 514 -9.8432786762714386e-03</internalNodes>
          <leafValues>
            5.4198157787322998e-01 -1.0020485520362854e-01</leafValues></_>
        <_>
          <internalNodes>
            0 -1 480 7.2965435683727264e-03</internalNodes>
          <leafValues>
            1.0367698222398758e-01 -6.3955074548721313e-01</leafValues></_>
        <_>
          <internalNodes>
            0 -1 208 -5.7042427361011505e-02</internalNodes>
          <leafValues>
            7.2727012634277344e-01 -7.8514866530895233e-02</leafValues></_>
        <_>
          <internalNodes>
            0 -1 38 -1.8964339978992939e-03</internalNodes>
          <leafValues>
            -3.8372403383255005e-01 1.3939702510833740e-01</leafValues></_>
        <_>
          <internalNodes>
            0 -1 277 8.1024002283811569e-03</internalNodes>
          <leafValues>
            5.6402597576379776e-02 -7.9454803466796875e-01</leafValues></_></weakClassifiers></_>
    <!-- stage 15 -->
    <_>
      <maxWeakCount>33</maxWeakCount>
      <stageThreshold>-6.2920445203781128e-01</stageThreshold>
      <weakClassifiers>
        <_>
          <internalNodes>
            0 -1 461 -1.0690221562981606e-02</internalNodes>
          <leafValues>
            6.7521369457244873e-01 1.7175975441932678e-01</leafValues></_>
        <_>
          <internalNodes>
            0 -1 20 -1.1401118338108063e-01</internalNodes>
          <leafValues>
            -4.0585315227508545e-01 1.3969753682613373e-01</leafValues></_>
        <_>
          <internalNodes>
            0 -1 531 -6.6820494830608368e-03</internalNodes>
          <leafValues>
            4.3978291749954224e-01 -1.3878530263900757e-01</leafValues></_>
        <_>
          <internalNodes>
            0 -1 561 1.1804629117250443e-02</internalNodes>
          <leafValues>
            -1.5658752620220184e-01 3.6865219473838806e-01</leafValues></_>
        <_>
          <internalNodes>
            0 -1 35 -5.5674802511930466e-02</internalNodes>
          <leafValues>
            -6.0484004020690918e-01 8.1636689603328705e-02</leafValues></_>
        <_>
          <internalNodes>
            0 -1 569 7.9353405162692070e-03</internalNodes>
          <leafValues>
            -1.6001583635807037e-01 3.1912469863891602e-01</leafValues></_>
        <_>
          <internalNodes>
            0 -1 110 -2.0299779716879129e-03</internalNodes>
          <leafValues>
            -3.6645942926406860e-01 1.4036534726619720e-01</leafValues></_>
        <_>
          <internalNodes>
            0 -1 219 -5.2844630554318428e-03</internalNodes>
          <leafValues>
            -2.1067784726619720e-01 2.0824337005615234e-01</leafValues></_>
        <_>
          <internalNodes>
            0 -1 298 6.7103564739227295e-02</internalNodes>
          <leafValues>
            1.4473330974578857e-01 -3.7655666470527649e-01</leafValues></_>
        <_>
          <internalNodes>
            0 -1 54 -1.3216015696525574e-01</internalNodes>
          <leafValues>
            -7.0409560203552246e-01 7.9942151904106140e-02</leafValues></_>
        <_>
          <internalNodes>
            0 -1 521 4.1675465181469917e-03</internalNodes>
          <leafValues>
            -6.7521348595619202e-02 7.4806922674179077e-01</leafValues></_>
        <_>
          <internalNodes>
            0 -1 158 -3.1823053723201156e-04</internalNodes>
          <leafValues>
            1.9276623427867889e-01 -2.0343333482742310e-01</leafValues></_>
        <_>
          <internalNodes>
            0 -1 89 2.4676887691020966e-01</internalNodes>
          <leafValues>
            7.6189696788787842e-02 -5.1684480905532837e-01</leafValues></_>
        <_>
          <internalNodes>
            0 -1 745 -3.0748738208785653e-04</internalNodes>
          <leafValues>
            2.4573503434658051e-01 -1.8916572630405426e-01</leafValues></_>
        <_>
          <internalNodes>
            0 -1 387 1.0215304791927338e-01</internalNodes>
          <leafValues>
            9.2253379523754120e-02 -5.1992022991180420e-01</leafValues></_>
        <_>
          <internalNodes>
            0 -1 119 -2.4905361235141754e-02</internalNodes>
          <leafValues>
            -6.1602163314819336e-01 6.3435196876525879e-02</leafValues></_>
        <_>
          <internalNodes>
            0 -1 438 2.5529058184474707e-03</internalNodes>
          <leafValues>
            -9.0296119451522827e-02 5.1975530385971069e-01</leafValues></_>
        <_>
          <internalNodes>
            0 -1 436 -4.4639303814619780e-04</internalNodes>
          <leafValues>
            2.2806508839130402e-01 -2.0509894192218781e-01</leafValues></_>
        <_>
          <internalNodes>
            0 -1 245 -2.4010165035724640e-01</internalNodes>
          <leafValues>
            6.8014633655548096e-01 -5.4164085537195206e-02</leafValues></_>
        <_>
          <internalNodes>
            0 -1 146 6.0097280889749527e-02</internalNodes>
          <leafValues>
            -1.9365392625331879e-01 2.6306387782096863e-01</leafValues></_>
        <_>
          <internalNodes>
            0 -1 145 -2.2626525163650513e-01</internalNodes>
          <leafValues>
            5.5365145206451416e-01 -8.2748338580131531e-02</leafValues></_>
        <_>
          <internalNodes>
            0 -1 712 -1.3784118928015232e-02</internalNodes>
          <leafValues>
            4.3792304396629333e-01 -9.4139859080314636e-02</leafValues></_>
        <_>
          <internalNodes>
            0 -1 212 1.4344983734190464e-02</internalNodes>
          <leafValues>
            -7.6430223882198334e-02 5.2211350202560425e-01</leafValues></_>
        <_>
          <internalNodes>
            0 -1 732 -1.0436709970235825e-02</internalNodes>
          <leafValues>
            5.6527787446975708e-01 -7.4214965105056763e-02</leafValues></_>
        <_>
          <internalNodes>
            0 -1 176 -4.0533882565796375e-03</internalNodes>
          <leafValues>
            4.4096705317497253e-01 -9.8299957811832428e-02</leafValues></_>
        <_>
          <internalNodes>
            0 -1 1 -2.5027091614902020e-03</internalNodes>
          <leafValues>
            -5.2798551321029663e-01 9.3130089342594147e-02</leafValues></_>
        <_>
          <internalNodes>
            0 -1 10 -1.8675027415156364e-02</internalNodes>
          <leafValues>
            -7.9479044675827026e-01 4.7684684395790100e-02</leafValues></_>
        <_>
          <internalNodes>
            0 -1 526 3.9405417628586292e-03</internalNodes>
          <leafValues>
            -1.2087005376815796e-01 3.8406097888946533e-01</leafValues></_>
        <_>
          <internalNodes>
            0 -1 630 4.5069991610944271e-03</internalNodes>
          <leafValues>
            7.5885079801082611e-02 -6.1813986301422119e-01</leafValues></_>
        <_>
          <internalNodes>
            0 -1 686 -1.9100626930594444e-02</internalNodes>
          <leafValues>
            4.4806751608848572e-01 -1.1272664368152618e-01</leafValues></_>
        <_>
          <internalNodes>
            0 -1 545 1.0728130117058754e-02</internalNodes>
          <leafValues>
            -4.7867059707641602e-02 7.4198377132415771e-01</leafValues></_>
        <_>
          <internalNodes>
            0 -1 578 1.9595433026552200e-02</internalNodes>
          <leafValues>
            -6.5387509763240814e-02 4.8725515604019165e-01</leafValues></_>
        <_>
          <internalNodes>
            0 -1 694 -7.0408238098025322e-03</internalNodes>
          <leafValues>
            2.6700466871261597e-01 -1.4859011769294739e-01</leafValues></_></weakClassifiers></_>
    <!-- stage 16 -->
    <_>
      <maxWeakCount>29</maxWeakCount>
      <stageThreshold>-6.9769698381423950e-01</stageThreshold>
      <weakClassifiers>
        <_>
          <internalNodes>
            0 -1 544 3.6043731961399317e-03</internalNodes>
          <leafValues>
            2.3715414106845856e-02 4.8866498470306396e-01</leafValues></_>
        <_>
          <internalNodes>
            0 -1 543 -1.5568158123642206e-03</internalNodes>
          <leafValues>
            4.1815569996833801e-01 -1.5060198307037354e-01</leafValues></_>
        <_>
          <internalNodes>
            0 -1 678 -2.2796676494181156e-03</internalNodes>
          <leafValues>
            5.1256442070007324e-01 -1.2011649459600449e-01</leafValues></_>
        <_>
          <internalNodes>
            0 -1 598 -9.0624419972300529e-03</internalNodes>
          <leafValues>
            3.0832019448280334e-01 -1.7633934319019318e-01</leafValues></_>
        <_>
          <internalNodes>
            0 -1 594 5.8074239641427994e-03</internalNodes>
          <leafValues>
            -1.2044584751129150e-01 5.5516397953033447e-01</leafValues></_>
        <_>
          <internalNodes>
            0 -1 464 -1.1557534337043762e-02</internalNodes>
          <leafValues>
            4.6706309914588928e-01 -1.0736793279647827e-01</leafValues></_>
        <_>
          <internalNodes>
            0 -1 252 -4.1102621704339981e-02</internalNodes>
          <leafValues>
            3.9305451512336731e-01 -1.2966965138912201e-01</leafValues></_>
        <_>
          <internalNodes>
            0 -1 28 7.5541706755757332e-03</internalNodes>
          <leafValues>
            -2.5578156113624573e-01 2.0362028479576111e-01</leafValues></_>
        <_>
          <internalNodes>
            0 -1 481 2.8431587852537632e-03</internalNodes>
          <leafValues>
            1.3130839169025421e-01 -3.7486910820007324e-01</leafValues></_>
        <_>
          <internalNodes>
            0 -1 344 -6.6842153668403625e-02</internalNodes>
          <leafValues>
            4.0939283370971680e-01 -1.2582777440547943e-01</leafValues></_>
        <_>
          <internalNodes>
            0 -1 154 1.0253176093101501e-01</internalNodes>
          <leafValues>
            8.7722532451152802e-02 -6.2624180316925049e-01</leafValues></_>
        <_>
          <internalNodes>
            0 -1 426 -7.7037243172526360e-03</internalNodes>
          <leafValues>
            4.7068932652473450e-01 -1.2192233651876450e-01</leafValues></_>
        <_>
          <internalNodes>
            0 -1 451 -9.7364515066146851e-02</internalNodes>
          <leafValues>
            -7.7464103698730469e-01 8.2256339490413666e-02</leafValues></_>
        <_>
          <internalNodes>
            0 -1 161 4.6826813369989395e-02</internalNodes>
          <leafValues>
            -6.8578071892261505e-02 7.2405004501342773e-01</leafValues></_>
        <_>
          <internalNodes>
            0 -1 445 -4.3125892989337444e-03</internalNodes>
          <leafValues>
            2.9046598076820374e-01 -1.6385915875434875e-01</leafValues></_>
        <_>
          <internalNodes>
            0 -1 232 -1.1430496349930763e-02</internalNodes>
          <leafValues>
            -5.4380559921264648e-01 1.2553891539573669e-01</leafValues></_>
        <_>
          <internalNodes>
            0 -1 408 -9.3939721584320068e-02</internalNodes>
          <leafValues>
            -4.6906182169914246e-01 1.1030726134777069e-01</leafValues></_>
        <_>
          <internalNodes>
            0 -1 715 -1.4939967542886734e-02</internalNodes>
          <leafValues>
            9.2462354898452759e-01 -5.6352972984313965e-02</leafValues></_>
        <_>
          <internalNodes>
            0 -1 549 -3.6135183181613684e-03</internalNodes>
          <leafValues>
            1.5280839800834656e-01 -2.9466295242309570e-01</leafValues></_>
        <_>
          <internalNodes>
            0 -1 656 4.2957495898008347e-03</internalNodes>
          <leafValues>
            -8.3573579788208008e-02 6.4137285947799683e-01</leafValues></_>
        <_>
          <internalNodes>
            0 -1 763 -7.9791259486228228e-04</internalNodes>
          <leafValues>
            2.5548821687698364e-01 -1.8004330992698669e-01</leafValues></_>
        <_>
          <internalNodes>
            0 -1 339 -4.0680389851331711e-02</internalNodes>
          <leafValues>
            2.7685037255287170e-01 -1.7985469102859497e-01</leafValues></_>
        <_>
          <internalNodes>
            0 -1 433 4.5542180538177490e-02</internalNodes>
          <leafValues>
            1.0989671200513840e-01 -4.1468328237533569e-01</leafValues></_>
        <_>
          <internalNodes>
            0 -1 136 -9.7062848508358002e-02</internalNodes>
          <leafValues>
            -9.3974047899246216e-01 4.2251341044902802e-02</leafValues></_>
        <_>
          <internalNodes>
            0 -1 194 -5.8803874999284744e-03</internalNodes>
          <leafValues>
            4.4610127806663513e-01 -1.0972026735544205e-01</leafValues></_>
        <_>
          <internalNodes>
            0 -1 571 -7.4706915766000748e-03</internalNodes>
          <leafValues>
            6.7742800712585449e-01 -6.1406761407852173e-02</leafValues></_>
        <_>
          <internalNodes>
            0 -1 774 -3.3123555476777256e-04</internalNodes>
          <leafValues>
            -2.7706846594810486e-01 1.6852521896362305e-01</leafValues></_>
        <_>
          <internalNodes>
            0 -1 627 -9.4203591346740723e-02</internalNodes>
          <leafValues>
            5.8595317602157593e-01 -6.6278599202632904e-02</leafValues></_>
        <_>
          <internalNodes>
            0 -1 248 -1.4079671353101730e-02</internalNodes>
          <leafValues>
            3.5597220063209534e-01 -1.1000996828079224e-01</leafValues></_></weakClassifiers></_>
    <!-- stage 17 -->
    <_>
      <maxWeakCount>30</maxWeakCount>
      <stageThreshold>-6.7198121547698975e-01</stageThreshold>
      <weakClassifiers>
        <_>
          <internalNodes>
            0 -1 505 1.6407653689384460e-02</internalNodes>
          <leafValues>
            -3.2098766416311264e-02 4.6145251393318176e-01</leafValues></_>
        <_>
          <internalNodes>
            0 -1 417 -1.5962785482406616e-01</internalNodes>
          <leafValues>
            8.1629067659378052e-01 -5.1302038133144379e-02</leafValues></_>
        <_>
          <internalNodes>
            0 -1 349 -2.9618297703564167e-03</internalNodes>
          <leafValues>
            2.1699284017086029e-01 -2.4901461601257324e-01</leafValues></_>
        <_>
          <internalNodes>
            0 -1 90 -2.5324212387204170e-02</internalNodes>
          <leafValues>
            -9.7975444793701172e-01 6.4540788531303406e-02</leafValues></_>
        <_>
          <internalNodes>
            0 -1 435 -3.7309224717319012e-03</internalNodes>
          <leafValues>
            4.5534774661064148e-01 -1.1729807406663895e-01</leafValues></_>
        <_>
          <internalNodes>
            0 -1 341 9.4323687255382538e-02</internalNodes>
          <leafValues>
            -1.1303240805864334e-01 3.9619100093841553e-01</leafValues></_>
        <_>
          <internalNodes>
            0 -1 468 6.9729024544358253e-03</internalNodes>
          <leafValues>
            -9.7505249083042145e-02 5.2176702022552490e-01</leafValues></_>
        <_>
          <internalNodes>
            0 -1 601 -9.3662453582510352e-04</internalNodes>
          <leafValues>
            -4.7174930572509766e-01 1.0093374550342560e-01</leafValues></_>
        <_>
          <internalNodes>
            0 -1 113 -9.9459990859031677e-02</internalNodes>
          <leafValues>
            -8.6482566595077515e-01 3.8817651569843292e-02</leafValues></_>
        <_>
          <internalNodes>
            0 -1 330 4.7301493585109711e-02</internalNodes>
          <leafValues>
            -6.6365689039230347e-02 7.9985594749450684e-01</leafValues></_>
        <_>
          <internalNodes>
            0 -1 740 8.8476459495723248e-04</internalNodes>
          <leafValues>
            1.7093265056610107e-01 -2.9597374796867371e-01</leafValues></_>
        <_>
          <internalNodes>
            0 -1 353 -7.6944250613451004e-03</internalNodes>
          <leafValues>
            2.6159486174583435e-01 -1.5989607572555542e-01</leafValues></_>
        <_>
          <internalNodes>
            0 -1 596 -3.7378543056547642e-03</internalNodes>
          <leafValues>
            4.9776804447174072e-01 -9.0636998414993286e-02</leafValues></_>
        <_>
          <internalNodes>
            0 -1 65 1.3306627515703440e-03</internalNodes>
          <leafValues>
            1.4488343894481659e-01 -2.9874214529991150e-01</leafValues></_>
        <_>
          <internalNodes>
            0 -1 137 -1.0100871324539185e-01</internalNodes>
          <leafValues>
            -4.5787641406059265e-01 9.3933776021003723e-02</leafValues></_>
        <_>
          <internalNodes>
            0 -1 458 1.9341075420379639e-01</internalNodes>
          <leafValues>
            9.5217339694499969e-02 -4.7115868330001831e-01</leafValues></_>
        <_>
          <internalNodes>
            0 -1 251 -1.8595662550069392e-04</internalNodes>
          <leafValues>
            1.9438983500003815e-01 -2.0626765489578247e-01</leafValues></_>
        <_>
          <internalNodes>
            0 -1 295 1.6786936670541763e-02</internalNodes>
          <leafValues>
            -1.2604083120822906e-01 3.8398602604866028e-01</leafValues></_>
        <_>
          <internalNodes>
            0 -1 111 -3.6047212779521942e-03</internalNodes>
          <leafValues>
            -4.5650607347488403e-01 1.2079039216041565e-01</leafValues></_>
        <_>
          <internalNodes>
            0 -1 30 6.1154353618621826e-01</internalNodes>
          <leafValues>
            4.1788514703512192e-02 -9.6265268325805664e-01</leafValues></_>
        <_>
          <internalNodes>
            0 -1 383 3.0352791771292686e-02</internalNodes>
          <leafValues>
            -2.2961974143981934e-01 2.1382406353950500e-01</leafValues></_>
        <_>
          <internalNodes>
            0 -1 608 -2.3099403828382492e-02</internalNodes>
          <leafValues>
            4.8590126633644104e-01 -9.1893911361694336e-02</leafValues></_>
        <_>
          <internalNodes>
            0 -1 127 -1.4089861651882529e-03</internalNodes>
          <leafValues>
            -6.4858084917068481e-01 7.1449063718318939e-02</leafValues></_>
        <_>
          <internalNodes>
            0 -1 538 3.4313295036554337e-03</internalNodes>
          <leafValues>
            1.4352248609066010e-01 -3.0033785104751587e-01</leafValues></_>
        <_>
          <internalNodes>
            0 -1 400 -8.7042555212974548e-02</internalNodes>
          <leafValues>
            4.4410356879234314e-01 -1.1024270206689835e-01</leafValues></_>
        <_>
          <internalNodes>
            0 -1 117 1.1924151331186295e-03</internalNodes>
          <leafValues>
            1.7677934467792511e-01 -2.5241476297378540e-01</leafValues></_>
        <_>
          <internalNodes>
            0 -1 96 1.1053608730435371e-02</internalNodes>
          <leafValues>
            -6.8033002316951752e-02 6.2553834915161133e-01</leafValues></_>
        <_>
          <internalNodes>
            0 -1 47 2.3070918396115303e-02</internalNodes>
          <leafValues>
            -1.9729717075824738e-01 1.9762752950191498e-01</leafValues></_>
        <_>
          <internalNodes>
            0 -1 242 -7.5738489627838135e-02</internalNodes>
          <leafValues>
            3.5001522302627563e-01 -1.4383487403392792e-01</leafValues></_>
        <_>
          <internalNodes>
            0 -1 364 2.1293577551841736e-01</internalNodes>
          <leafValues>
            9.0967662632465363e-02 -4.9552163481712341e-01</leafValues></_></weakClassifiers></_>
    <!-- stage 18 -->
    <_>
      <maxWeakCount>31</maxWeakCount>
      <stageThreshold>-6.1465960741043091e-01</stageThreshold>
      <weakClassifiers>
        <_>
          <internalNodes>
            0 -1 228 4.2509056627750397e-02</internalNodes>
          <leafValues>
            3.9212328195571899e-01 -4.3939393758773804e-01</leafValues></_>
        <_>
          <internalNodes>
            0 -1 698 -2.7565635740756989e-02</internalNodes>
          <leafValues>
            4.6947807073593140e-01 -1.0593334585428238e-01</leafValues></_>
        <_>
          <internalNodes>
            0 -1 539 -2.0622305572032928e-02</internalNodes>
          <leafValues>
            5.1658481359481812e-01 -8.8341601192951202e-02</leafValues></_>
        <_>
          <internalNodes>
            0 -1 7 7.7672288753092289e-03</internalNodes>
          <leafValues>
            -1.5704554319381714e-01 3.8046926259994507e-01</leafValues></_>
        <_>
          <internalNodes>
            0 -1 653 -1.7971973866224289e-02</internalNodes>
          <leafValues>
            4.0877088904380798e-01 -1.8746776878833771e-01</leafValues></_>
        <_>
          <internalNodes>
            0 -1 747 -1.7117534298449755e-03</internalNodes>
          <leafValues>
            4.9235859513282776e-01 -9.5236413180828094e-02</leafValues></_>
        <_>
          <internalNodes>
            0 -1 294 -1.2964475154876709e-01</internalNodes>
          <leafValues>
            -5.0469660758972168e-01 1.1888705193996429e-01</leafValues></_>
        <_>
          <internalNodes>
            0 -1 441 -8.0692004412412643e-03</internalNodes>
          <leafValues>
            1.7403878271579742e-01 -3.1652981042861938e-01</leafValues></_>
        <_>
          <internalNodes>
            0 -1 418 -1.6048455610871315e-02</internalNodes>
          <leafValues>
            4.5323258638381958e-01 -1.0347610712051392e-01</leafValues></_>
        <_>
          <internalNodes>
            0 -1 205 -2.0018490031361580e-02</internalNodes>
          <leafValues>
            4.0944916009902954e-01 -1.4540696144104004e-01</leafValues></_>
        <_>
          <internalNodes>
            0 -1 19 5.8620177209377289e-02</internalNodes>
          <leafValues>
            1.1184577643871307e-01 -5.1187825202941895e-01</leafValues></_>
        <_>
          <internalNodes>
            0 -1 380 1.2072912068106234e-04</internalNodes>
          <leafValues>
            2.1996000409126282e-01 -2.1442815661430359e-01</leafValues></_>
        <_>
          <internalNodes>
            0 -1 235 -7.3092088103294373e-02</internalNodes>
          <leafValues>
            5.5620193481445312e-01 -8.8264502584934235e-02</leafValues></_>
        <_>
          <internalNodes>
            0 -1 143 3.4690581262111664e-02</internalNodes>
          <leafValues>
            -1.0590951144695282e-01 4.3513351678848267e-01</leafValues></_>
        <_>
          <internalNodes>
            0 -1 86 1.0843664407730103e-01</internalNodes>
          <leafValues>
            -4.3974936008453369e-02 8.2874125242233276e-01</leafValues></_>
        <_>
          <internalNodes>
            0 -1 366 2.5830853730440140e-02</internalNodes>
          <leafValues>
            -1.7538557946681976e-01 2.5510835647583008e-01</leafValues></_>
        <_>
          <internalNodes>
            0 -1 226 -3.6130510270595551e-03</internalNodes>
          <leafValues>
            4.4014018774032593e-01 -1.0774323344230652e-01</leafValues></_>
        <_>
          <internalNodes>
            0 -1 180 1.6720984131097794e-02</internalNodes>
          <leafValues>
            5.7567659765481949e-02 -8.3074980974197388e-01</leafValues></_>
        <_>
          <internalNodes>
            0 -1 399 -9.1630563838407397e-04</internalNodes>
          <leafValues>
            5.0888824462890625e-01 -9.3113809823989868e-02</leafValues></_>
        <_>
          <internalNodes>
            0 -1 701 8.9978333562612534e-04</internalNodes>
          <leafValues>
            1.5977084636688232e-01 -3.0225428938865662e-01</leafValues></_>
        <_>
          <internalNodes>
            0 -1 764 1.9764775061048567e-04</internalNodes>
          <leafValues>
            -1.7803688347339630e-01 2.7342191338539124e-01</leafValues></_>
        <_>
          <internalNodes>
            0 -1 609 3.7269794847816229e-04</internalNodes>
          <leafValues>
            1.6230984032154083e-01 -2.7655348181724548e-01</leafValues></_>
        <_>
          <internalNodes>
            0 -1 722 -2.2192087024450302e-02</internalNodes>
          <leafValues>
            -6.8791979551315308e-01 7.0707395672798157e-02</leafValues></_>
        <_>
          <internalNodes>
            0 -1 265 2.1064892644062638e-04</internalNodes>
          <leafValues>
            1.5641680359840393e-01 -2.7761518955230713e-01</leafValues></_>
        <_>
          <internalNodes>
            0 -1 265 -1.8943441100418568e-03</internalNodes>
          <leafValues>
            -6.1720794439315796e-01 7.6111242175102234e-02</leafValues></_>
        <_>
          <internalNodes>
            0 -1 703 -3.7734135985374451e-02</internalNodes>
          <leafValues>
            3.0856800079345703e-01 -1.5449944138526917e-01</leafValues></_>
        <_>
          <internalNodes>
            0 -1 595 -3.4956797957420349e-02</internalNodes>
          <leafValues>
            -6.4647328853607178e-01 6.7586310207843781e-02</leafValues></_>
        <_>
          <internalNodes>
            0 -1 534 -3.6090690642595291e-02</internalNodes>
          <leafValues>
            6.2145328521728516e-01 -8.4314286708831787e-02</leafValues></_>
        <_>
          <internalNodes>
            0 -1 12 2.0237633958458900e-02</internalNodes>
          <leafValues>
            -2.2366738319396973e-01 2.0970453321933746e-01</leafValues></_>
        <_>
          <internalNodes>
            0 -1 162 2.9762023687362671e-01</internalNodes>
          <leafValues>
            6.6395156085491180e-02 -8.6706405878067017e-01</leafValues></_>
        <_>
          <internalNodes>
            0 -1 227 9.3163952231407166e-02</internalNodes>
          <leafValues>
            1.5014813840389252e-01 -3.5201722383499146e-01</leafValues></_></weakClassifiers></_>
    <!-- stage 19 -->
    <_>
      <maxWeakCount>28</maxWeakCount>
      <stageThreshold>-6.2841778993606567e-01</stageThreshold>
      <weakClassifiers>
        <_>
          <internalNodes>
            0 -1 6 -6.0783852823078632e-03</internalNodes>
          <leafValues>
            -3.3333334326744080e-01 3.8754326105117798e-01</leafValues></_>
        <_>
          <internalNodes>
            0 -1 254 1.4225089550018311e-01</internalNodes>
          <leafValues>
            -3.9018932729959488e-02 8.6431413888931274e-01</leafValues></_>
        <_>
          <internalNodes>
            0 -1 334 -5.2539967000484467e-03</internalNodes>
          <leafValues>
            1.6821511089801788e-01 -3.1880268454551697e-01</leafValues></_>
        <_>
          <internalNodes>
            0 -1 260 2.8802867978811264e-02</internalNodes>
          <leafValues>
            -8.8790275156497955e-02 4.9387890100479126e-01</leafValues></_>
        <_>
          <internalNodes>
            0 -1 381 -9.9984300322830677e-04</internalNodes>
          <leafValues>
            2.8571864962577820e-01 -2.1456432342529297e-01</leafValues></_>
        <_>
          <internalNodes>
            0 -1 193 7.4453291017562151e-04</internalNodes>
          <leafValues>
            2.1844190359115601e-01 -2.4529239535331726e-01</leafValues></_>
        <_>
          <internalNodes>
            0 -1 479 9.9065911490470171e-04</internalNodes>
          <leafValues>
            -1.8582503497600555e-01 3.0793884396553040e-01</leafValues></_>
        <_>
          <internalNodes>
            0 -1 82 9.3810036778450012e-02</internalNodes>
          <leafValues>
            1.0487788915634155e-01 -5.3220343589782715e-01</leafValues></_>
        <_>
          <internalNodes>
            0 -1 570 -2.0723007619380951e-02</internalNodes>
          <leafValues>
            -7.3815125226974487e-01 6.3952609896659851e-02</leafValues></_>
        <_>
          <internalNodes>
            0 -1 270 -3.7365551106631756e-03</internalNodes>
          <leafValues>
            4.6940988302230835e-01 -1.0763950645923615e-01</leafValues></_>
        <_>
          <internalNodes>
            0 -1 73 2.4644240736961365e-01</internalNodes>
          <leafValues>
            -7.1605280041694641e-02 7.5184929370880127e-01</leafValues></_>
        <_>
          <internalNodes>
            0 -1 699 -5.6556821800768375e-03</internalNodes>
          <leafValues>
            5.5560886859893799e-01 -7.9538173973560333e-02</leafValues></_>
        <_>
          <internalNodes>
            0 -1 518 5.0505958497524261e-03</internalNodes>
          <leafValues>
            -7.2789743542671204e-02 5.7309126853942871e-01</leafValues></_>
        <_>
          <internalNodes>
            0 -1 667 -2.3488861043006182e-03</internalNodes>
          <leafValues>
            3.9602446556091309e-01 -1.1051466315984726e-01</leafValues></_>
        <_>
          <internalNodes>
            0 -1 604 -3.2505756244063377e-03</internalNodes>
          <leafValues>
            -5.1142585277557373e-01 8.5610464215278625e-02</leafValues></_>
        <_>
          <internalNodes>
            0 -1 328 -8.1139504909515381e-02</internalNodes>
          <leafValues>
            -8.5229200124740601e-01 4.5359510928392410e-02</leafValues></_>
        <_>
          <internalNodes>
            0 -1 169 -9.2329978942871094e-02</internalNodes>
          <leafValues>
            -5.7329744100570679e-01 7.0866607129573822e-02</leafValues></_>
        <_>
          <internalNodes>
            0 -1 181 1.5102976560592651e-01</internalNodes>
          <leafValues>
            6.4696341753005981e-02 -6.4934748411178589e-01</leafValues></_>
        <_>
          <internalNodes>
            0 -1 537 2.6767207309603691e-03</internalNodes>
          <leafValues>
            -1.9286474585533142e-01 2.1519127488136292e-01</leafValues></_>
        <_>
          <internalNodes>
            0 -1 48 2.0040485262870789e-01</internalNodes>
          <leafValues>
            9.5909342169761658e-02 -5.2525389194488525e-01</leafValues></_>
        <_>
          <internalNodes>
            0 -1 606 8.6582768708467484e-03</internalNodes>
          <leafValues>
            1.1009741574525833e-01 -4.0393126010894775e-01</leafValues></_>
        <_>
          <internalNodes>
            0 -1 64 -1.8976841121912003e-02</internalNodes>
          <leafValues>
            -5.3746366500854492e-01 9.0381301939487457e-02</leafValues></_>
        <_>
          <internalNodes>
            0 -1 752 1.2877297122031450e-03</internalNodes>
          <leafValues>
            2.2651216387748718e-01 -2.0281125605106354e-01</leafValues></_>
        <_>
          <internalNodes>
            0 -1 640 1.4676937460899353e-01</internalNodes>
          <leafValues>
            5.5766858160495758e-02 -7.6513618230819702e-01</leafValues></_>
        <_>
          <internalNodes>
            0 -1 648 8.1673059612512589e-03</internalNodes>
          <leafValues>
            -1.3841818273067474e-01 4.3839463591575623e-01</leafValues></_>
        <_>
          <internalNodes>
            0 -1 129 -3.0054575763642788e-03</internalNodes>
          <leafValues>
            3.0651918053627014e-01 -1.2808562815189362e-01</leafValues></_>
        <_>
          <internalNodes>
            0 -1 744 2.0305618643760681e-02</internalNodes>
          <leafValues>
            1.2084919959306717e-01 -3.8167580962181091e-01</leafValues></_>
        <_>
          <internalNodes>
            0 -1 754 1.2002792209386826e-04</internalNodes>
          <leafValues>
            1.9055204093456268e-01 -2.3776157200336456e-01</leafValues></_></weakClassifiers></_>
    <!-- stage 20 -->
    <_>
      <maxWeakCount>30</maxWeakCount>
      <stageThreshold>-6.6482502222061157e-01</stageThreshold>
      <weakClassifiers>
        <_>
          <internalNodes>
            0 -1 49 2.3898917436599731e-01</internalNodes>
          <leafValues>
            4.1345292329788208e-01 -3.2972973585128784e-01</leafValues></_>
        <_>
          <internalNodes>
            0 -1 120 -7.1020610630512238e-03</internalNodes>
          <leafValues>
            -4.1835540533065796e-01 1.4987769722938538e-01</leafValues></_>
        <_>
          <internalNodes>
            0 -1 503 -1.0676822811365128e-01</internalNodes>
          <leafValues>
            -6.3803070783615112e-01 8.0424055457115173e-02</leafValues></_>
        <_>
          <internalNodes>
            0 -1 293 1.3994103670120239e-01</internalNodes>
          <leafValues>
            8.4906190633773804e-02 -6.1286842823028564e-01</leafValues></_>
        <_>
          <internalNodes>
            0 -1 462 -3.8736600428819656e-02</internalNodes>
          <leafValues>
            9.2884445190429688e-01 -7.5168639421463013e-02</leafValues></_>
        <_>
          <internalNodes>
            0 -1 528 -8.7247975170612335e-04</internalNodes>
          <leafValues>
            3.2465729117393494e-01 -1.4392906427383423e-01</leafValues></_>
        <_>
          <internalNodes>
            0 -1 310 -1.4870089292526245e-01</internalNodes>
          <leafValues>
            6.2130326032638550e-01 -9.2983223497867584e-02</leafValues></_>
        <_>
          <internalNodes>
            0 -1 338 -2.3515518754720688e-02</internalNodes>
          <leafValues>
            -3.1669318675994873e-01 1.7693072557449341e-01</leafValues></_>
        <_>
          <internalNodes>
            0 -1 568 -1.1109229177236557e-02</internalNodes>
          <leafValues>
            7.2181808948516846e-01 -4.7030761837959290e-02</leafValues></_>
        <_>
          <internalNodes>
            0 -1 501 -6.3541354611515999e-03</internalNodes>
          <leafValues>
            3.8913574814796448e-01 -1.3234607875347137e-01</leafValues></_>
        <_>
          <internalNodes>
            0 -1 362 4.5482534915208817e-03</internalNodes>
          <leafValues>
            -3.1012579798698425e-01 1.6845507919788361e-01</leafValues></_>
        <_>
          <internalNodes>
            0 -1 74 3.9279349148273468e-02</internalNodes>
          <leafValues>
            1.0437528043985367e-01 -5.2499455213546753e-01</leafValues></_>
        <_>
          <internalNodes>
            0 -1 661 7.3870788328349590e-03</internalNodes>
          <leafValues>
            5.0814174115657806e-02 -9.4578540325164795e-01</leafValues></_>
        <_>
          <internalNodes>
            0 -1 773 -4.4074251491110772e-05</internalNodes>
          <leafValues>
            2.3294304311275482e-01 -2.0047970116138458e-01</leafValues></_>
        <_>
          <internalNodes>
            0 -1 406 -8.8449612259864807e-02</internalNodes>
          <leafValues>
            -4.2649233341217041e-01 1.1662472039461136e-01</leafValues></_>
        <_>
          <internalNodes>
            0 -1 540 -1.0549044236540794e-02</internalNodes>
          <leafValues>
            4.7449755668640137e-01 -9.5191441476345062e-02</leafValues></_>
        <_>
          <internalNodes>
            0 -1 114 3.4528516232967377e-02</internalNodes>
          <leafValues>
            1.1115947365760803e-01 -4.4895780086517334e-01</leafValues></_>
        <_>
          <internalNodes>
            0 -1 315 4.9860246479511261e-02</internalNodes>
          <leafValues>
            1.4203606545925140e-01 -3.7489619851112366e-01</leafValues></_>
        <_>
          <internalNodes>
            0 -1 623 -1.5137126669287682e-02</internalNodes>
          <leafValues>
            2.5718384981155396e-01 -2.0128442347049713e-01</leafValues></_>
        <_>
          <internalNodes>
            0 -1 365 1.6394153237342834e-01</internalNodes>
          <leafValues>
            1.1886196583509445e-01 -5.8458727598190308e-01</leafValues></_>
        <_>
          <internalNodes>
            0 -1 511 5.5554937571287155e-03</internalNodes>
          <leafValues>
            -1.1139703541994095e-01 4.6453359723091125e-01</leafValues></_>
        <_>
          <internalNodes>
            0 -1 446 3.4979748306795955e-04</internalNodes>
          <leafValues>
            -1.0647583007812500e-01 3.8426494598388672e-01</leafValues></_>
        <_>
          <internalNodes>
            0 -1 738 1.7708845552988350e-04</internalNodes>
          <leafValues>
            1.9567713141441345e-01 -2.5280609726905823e-01</leafValues></_>
        <_>
          <internalNodes>
            0 -1 560 -1.4779435005038977e-03</internalNodes>
          <leafValues>
            -4.7934201359748840e-01 8.8169917464256287e-02</leafValues></_>
        <_>
          <internalNodes>
            0 -1 657 5.7951831258833408e-03</internalNodes>
          <leafValues>
            -6.8635821342468262e-02 6.1930900812149048e-01</leafValues></_>
        <_>
          <internalNodes>
            0 -1 516 1.1254579294472933e-03</internalNodes>
          <leafValues>
            1.3530805706977844e-01 -3.4341642260551453e-01</leafValues></_>
        <_>
          <internalNodes>
            0 -1 429 8.2474611699581146e-03</internalNodes>
          <leafValues>
            -5.9218436479568481e-02 8.6418241262435913e-01</leafValues></_>
        <_>
          <internalNodes>
            0 -1 268 6.3177272677421570e-02</internalNodes>
          <leafValues>
            6.7234538495540619e-02 -8.4048986434936523e-01</leafValues></_>
        <_>
          <internalNodes>
            0 -1 385 -2.3691561073064804e-03</internalNodes>
          <leafValues>
            4.5134377479553223e-01 -1.1568692326545715e-01</leafValues></_>
        <_>
          <internalNodes>
            0 -1 63 2.4447543546557426e-04</internalNodes>
          <leafValues>
            2.1158692240715027e-01 -2.2436034679412842e-01</leafValues></_></weakClassifiers></_>
    <!-- stage 21 -->
    <_>
      <maxWeakCount>34</maxWeakCount>
      <stageThreshold>-5.5558615922927856e-01</stageThreshold>
      <weakClassifiers>
        <_>
          <internalNodes>
            0 -1 206 -5.3463794756680727e-04</internalNodes>
          <leafValues>
            5.3703701496124268e-01 9.4202898442745209e-02</leafValues></_>
        <_>
          <internalNodes>
            0 -1 564 5.8795372024178505e-03</internalNodes>
          <leafValues>
            -1.3303369283676147e-01 3.4603711962699890e-01</leafValues></_>
        <_>
          <internalNodes>
            0 -1 687 -9.8761655390262604e-03</internalNodes>
          <leafValues>
            2.3464658856391907e-01 -1.8236088752746582e-01</leafValues></_>
        <_>
          <internalNodes>
            0 -1 139 -3.8365158252418041e-03</internalNodes>
          <leafValues>
            3.3201789855957031e-01 -1.5521293878555298e-01</leafValues></_>
        <_>
          <internalNodes>
            0 -1 62 -2.1319195628166199e-01</internalNodes>
          <leafValues>
            -5.3120356798171997e-01 9.1231845319271088e-02</leafValues></_>
        <_>
          <internalNodes>
            0 -1 85 -1.0100772487930954e-04</internalNodes>
          <leafValues>
            1.9114674627780914e-01 -2.2708247601985931e-01</leafValues></_>
        <_>
          <internalNodes>
            0 -1 599 -1.5810964629054070e-02</internalNodes>
          <leafValues>
            3.1369644403457642e-01 -1.4693662524223328e-01</leafValues></_>
        <_>
          <internalNodes>
            0 -1 322 -9.5614697784185410e-03</internalNodes>
          <leafValues>
            -7.7344465255737305e-01 6.4488679170608521e-02</leafValues></_>
        <_>
